{"learner":{"attributes":{"scikit_learn":"{\"_estimator_type\": \"classifier\"}"},"feature_names":["Age","Income","LoanAmount","CreditScore","MonthsEmployed","NumCreditLines","InterestRate","LoanTerm","DTIRatio","Education","EmploymentType","MaritalStatus","HasMortgage","HasDependents","LoanPurpose","HasCoSigner"],"feature_types":["int","int","int","int","int","int","float","int","float","float","float","float","float","float","float","float"],"gradient_booster":{"model":{"gbtree_model_param":{"num_parallel_tree":"1","num_trees":"100"},"iteration_indptr":[0,1,2,3,4,5,6,7,8,9,10,11,12,13,14,15,16,17,18,19,20,21,22,23,24,25,26,27,28,29,30,31,32,33,34,35,36,37,38,39,40,41,42,43,44,45,46,47,48,49,50,51,52,53,54,55,56,57,58,59,60,61,62,63,64,65,66,67,68,69,70,71,72,73,74,75,76,77,78,79,80,81,82,83,84,85,86,87,88,89,90,91,92,93,94,95,96,97,98,99,100],"tree_info":[0,0,0,0,0,0,0,0,0,0,0,0,0,0,0,0,0,0,0,0,0,0,0,0,0,0,0,0,0,0,0,0,0,0,0,0,0,0,0,0,0,0,0,0,0,0,0,0,0,0,0,0,0,0,0,0,0,0,0,0,0,0,0,0,0,0,0,0,0,0,0,0,0,0,0,0,0,0,0,0,0,0,0,0,0,0,0,0,0,0,0,0,0,0,0,0,0,0,0,0],"trees":[{"base_weights":[1.9435102E-8,4.0141585E-1,-5.2878505E-1,-5.1095497E-2,6.846884E-1,1.3575979E-1,-7.0804155E-1,7.008367E-1,-2.0663382E-1,1.1782807E0,5.547298E-1,-3.9284295E-1,5.7960004E-1,-1.0519456E0,-4.1587967E-1,1.9118342E-1,1.1282599E0,8.628735E-2,-5.1324993E-1,7.8274256E-1,1.4508904E0,7.97312E-1,2.5295505E-1,-7.502003E-1,4.5565728E-2,1.0190752E0,3.336975E-1,-8.4068274E-1,-1.2595215E0,-7.553622E-2,-6.4468145E-1,-1.1458541E-1,5.400012E-1,1.2670795E0,8.588857E-1,3.3487597E-1,-1.4658704E-1,-3.2391804E-1,-7.9388034E-1,1.0287957E0,5.6589574E-1,1.6503248E0,1.3153893E0,9.8266274E-1,5.8632976E-1,4.61892E-1,-7.134528E-2,-1.1464269E0,-4.798787E-1,-2.9415238E-1,4.1310617E-1,6.472688E-1,1.2281029E0,-1.2903427E-1,6.2558675E-1,-6.470915E-1,-1.0810213E0,-1.0658513E0,-1.381212E0,2.2533049E-1,-2.9310986E-1,-3.9434808E-1,-8.7651426E-1,1.6167209E-2,-1.9985977E-1,2.0009202E-1,-1.421639E-1,4.125338E-1,3.0880523E-1,1.691224E-1,3.2730198E-1,3.3796415E-2,1.6889796E-1,4.978365E-2,-8.036609E-2,-1.7148368E-1,-3.1164696E-2,-2.9152784E-1,-1.7522457E-1,3.8375184E-1,2.502509E-1,1.9130904E-2,1.9910657E-1,5.1957774E-1,4.3809786E-1,3.4826624E-1,4.344595E-1,2.329139E-1,3.378497E-1,8.470709E-2,2.240933E-1,7.617266E-2,2.1796985E-1,-1.296743E-1,1.4916627E-2,-2.521528E-1,-3.9697722E-1,-6.396161E-2,-2.2773021E-1,-2.3670213E-2,-2.0085493E-1,2.638468E-1,5.6565E-2,2.9666448E-1,9.79727E-2,2.8714487E-1,4.2563143E-1,8.078496E-2,-1.7661361E-1,2.539865E-1,7.1143016E-2,-2.6630503E-1,-1.2164478E-1,-3.9549085E-1,-2.8279886E-1,-3.9305422E-1,-2.826795E-1,-4.4938073E-1,-3.6013848E-1,-4.7574595E-2,1.02542676E-1,-1.407502E-1,-2.7269263E-2,-2.0225535E-1,-6.673705E-2,-2.8774938E-1,-1.7339559E-1],"categories":[],"categories_nodes":[],"categories_segments":[],"categories_sizes":[],"default_left":[0,0,0,0,0,0,0,0,0,0,0,0,0,0,0,0,0,0,0,0,0,0,0,0,0,0,0,0,0,0,0,0,0,0,0,0,0,0,0,0,0,0,0,0,0,0,0,0,0,0,0,0,0,0,0,0,0,0,0,0,0,0,0,0,0,0,0,0,0,0,0,0,0,0,0,0,0,0,0,0,0,0,0,0,0,0,0,0,0,0,0,0,0,0,0,0,0,0,0,0,0,0,0,0,0,0,0,0,0,0,0,0,0,0,0,0,0,0,0,0,0,0,0,0,0,0,0],"id":0,"left_children":[1,3,5,7,9,11,13,15,17,19,21,23,25,27,29,31,33,35,37,39,41,43,45,47,49,51,53,55,57,59,61,63,65,67,69,71,73,75,77,79,81,83,85,87,89,91,93,95,97,99,101,103,105,107,109,111,113,115,117,119,121,123,125,-1,-1,-1,-1,-1,-1,-1,-1,-1,-1,-1,-1,-1,-1,-1,-1,-1,-1,-1,-1,-1,-1,-1,-1,-1,-1,-1,-1,-1,-1,-1,-1,-1,-1,-1,-1,-1,-1,-1,-1,-1,-1,-1,-1,-1,-1,-1,-1,-1,-1,-1,-1,-1,-1,-1,-1,-1,-1,-1,-1,-1,-1,-1,-1],"loss_changes":[2.3953633E4,8.223107E3,5.801253E3,2.888741E3,2.530123E3,2.4276282E3,3.853121E3,9.2199854E2,1.8381863E3,8.8539844E2,2.2861602E3,7.399536E2,6.074857E2,7.714551E2,1.6148599E3,2.0614603E2,8.500464E1,6.060183E2,5.3103394E2,1.785188E2,1.2932812E2,6.7648926E2,9.431951E2,2.7814563E2,2.6505496E2,1.5599976E2,4.8739893E2,4.0564648E2,2.0789355E2,5.4588275E2,7.193594E2,9.580059E1,1.1653003E2,3.7550293E1,5.323822E1,2.5660718E2,2.0496123E2,3.254607E2,1.4974219E2,7.549963E1,8.768164E1,2.793164E1,5.7873535E1,2.7191602E2,3.9530762E2,4.658275E2,2.3836557E2,5.5933105E1,1.15138336E2,8.908645E1,1.0661629E2,7.94487E1,6.530322E1,2.5583755E2,1.8977039E2,2.8096497E2,1.2662402E2,1.0240747E2,1.1323242E2,1.5655682E2,1.7224045E2,2.867492E2,1.5828516E2,0E0,0E0,0E0,0E0,0E0,0E0,0E0,0E0,0E0,0E0,0E0,0E0,0E0,0E0,0E0,0E0,0E0,0E0,0E0,0E0,0E0,0E0,0E0,0E0,0E0,0E0,0E0,0E0,0E0,0E0,0E0,0E0,0E0,0E0,0E0,0E0,0E0,0E0,0E0,0E0,0E0,0E0,0E0,0E0,0E0,0E0,0E0,0E0,0E0,0E0,0E0,0E0,0E0,0E0,0E0,0E0,0E0,0E0,0E0,0E0,0E0,0E0,0E0,0E0],"parents":[2147483647,0,0,1,1,2,2,3,3,4,4,5,5,6,6,7,7,8,8,9,9,10,10,11,11,12,12,13,13,14,14,15,15,16,16,17,17,18,18,19,19,20,20,21,21,22,22,23,23,24,24,25,25,26,26,27,27,28,28,29,29,30,30,31,31,32,32,33,33,34,34,35,35,36,36,37,37,38,38,39,39,40,40,41,41,42,42,43,43,44,44,45,45,46,46,47,47,48,48,49,49,50,50,51,51,52,52,53,53,54,54,55,55,56,56,57,57,58,58,59,59,60,60,61,61,62,62],"right_children":[2,4,6,8,10,12,14,16,18,20,22,24,26,28,30,32,34,36,38,40,42,44,46,48,50,52,54,56,58,60,62,64,66,68,70,72,74,76,78,80,82,84,86,88,90,92,94,96,98,100,102,104,106,108,110,112,114,116,118,120,122,124,126,-1,-1,-1,-1,-1,-1,-1,-1,-1,-1,-1,-1,-1,-1,-1,-1,-1,-1,-1,-1,-1,-1,-1,-1,-1,-1,-1,-1,-1,-1,-1,-1,-1,-1,-1,-1,-1,-1,-1,-1,-1,-1,-1,-1,-1,-1,-1,-1,-1,-1,-1,-1,-1,-1,-1,-1,-1,-1,-1,-1,-1,-1,-1,-1],"split_conditions":[4.3E1,1.266E1,3.7747E4,3.1861E4,3.563E4,1.42066E5,1.364E1,1.46797E5,5.5E1,1.3335E5,5.9E1,1.597E1,2.134E4,5.6E1,4.3E1,9.0267E4,2.4948E4,2.9E1,3.2E1,4.9E1,2.188E4,3E1,3.2E1,6.6181E4,8.5434E4,1.177E1,1.266E1,5.7E1,5.3E1,5.3E1,5.5E1,3.6E1,3.9E1,3.4E1,1.97714E5,7.95E0,6.1429E4,7.41E0,1.44908E5,2.7E1,1.515E1,7.5E1,1.94827E5,1.834E1,1.761E1,2.023E1,7.5821E4,5.2E1,5.5E1,5.9E1,2.9E1,5.3E1,1.96781E5,5.5E1,5.8E1,8.3E0,6.6E0,9.2153E4,1.58295E5,7.1027E4,1.42987E5,1.834E1,2.276E1,1.6167209E-2,-1.9985977E-1,2.0009202E-1,-1.421639E-1,4.125338E-1,3.0880523E-1,1.691224E-1,3.2730198E-1,3.3796415E-2,1.6889796E-1,4.978365E-2,-8.036609E-2,-1.7148368E-1,-3.1164696E-2,-2.9152784E-1,-1.7522457E-1,3.8375184E-1,2.502509E-1,1.9130904E-2,1.9910657E-1,5.1957774E-1,4.3809786E-1,3.4826624E-1,4.344595E-1,2.329139E-1,3.378497E-1,8.470709E-2,2.240933E-1,7.617266E-2,2.1796985E-1,-1.296743E-1,1.4916627E-2,-2.521528E-1,-3.9697722E-1,-6.396161E-2,-2.2773021E-1,-2.3670213E-2,-2.0085493E-1,2.638468E-1,5.6565E-2,2.9666448E-1,9.79727E-2,2.8714487E-1,4.2563143E-1,8.078496E-2,-1.7661361E-1,2.539865E-1,7.1143016E-2,-2.6630503E-1,-1.2164478E-1,-3.9549085E-1,-2.8279886E-1,-3.9305422E-1,-2.826795E-1,-4.4938073E-1,-3.6013848E-1,-4.7574595E-2,1.02542676E-1,-1.407502E-1,-2.7269263E-2,-2.0225535E-1,-6.673705E-2,-2.8774938E-1,-1.7339559E-1],"split_indices":[0,6,1,1,1,2,6,2,4,2,4,6,1,4,4,2,1,0,0,4,1,0,0,2,2,6,6,0,0,0,0,0,0,0,2,6,1,6,2,0,6,4,2,6,6,6,2,0,4,0,4,0,2,4,0,6,6,2,2,2,2,6,6,0,0,0,0,0,0,0,0,0,0,0,0,0,0,0,0,0,0,0,0,0,0,0,0,0,0,0,0,0,0,0,0,0,0,0,0,0,0,0,0,0,0,0,0,0,0,0,0,0,0,0,0,0,0,0,0,0,0,0,0,0,0,0,0],"split_type":[0,0,0,0,0,0,0,0,0,0,0,0,0,0,0,0,0,0,0,0,0,0,0,0,0,0,0,0,0,0,0,0,0,0,0,0,0,0,0,0,0,0,0,0,0,0,0,0,0,0,0,0,0,0,0,0,0,0,0,0,0,0,0,0,0,0,0,0,0,0,0,0,0,0,0,0,0,0,0,0,0,0,0,0,0,0,0,0,0,0,0,0,0,0,0,0,0,0,0,0,0,0,0,0,0,0,0,0,0,0,0,0,0,0,0,0,0,0,0,0,0,0,0,0,0,0,0],"sum_hessian":[1.12847E5,6.4149516E4,4.8697484E4,2.4697508E4,3.9452008E4,1.0345306E4,3.835218E4,4.232494E3,2.0465014E4,8.220786E3,3.1231223E4,4.721834E3,5.623472E3,1.7614977E4,2.0737201E4,1.9312025E3,2.3012915E3,1.0466611E4,9.998403E3,3.355726E3,4.86506E3,1.7312717E4,1.3918505E4,2.6009924E3,2.1208416E3,2.0164839E3,3.6069883E3,8.732464E3,8.882513E3,8.337086E3,1.2400115E4,1.029462E3,9.017405E2,1.5162178E3,7.850737E2,5.0622866E3,5.4043247E3,5.971672E3,4.0267314E3,1.5702452E3,1.785481E3,1.9636804E3,2.9013794E3,9.214233E3,8.0984844E3,8.464596E3,5.453909E3,1.0535295E3,1.5474629E3,1.1022397E3,1.0186019E3,7.2715643E2,1.2893274E3,1.3954077E3,2.2115806E3,4.8386514E3,3.8938125E3,3.4313257E3,5.451187E3,3.4988066E3,4.83828E3,5.963463E3,6.436653E3,7.8929474E2,2.4016728E2,8.0168463E2,1.0005585E2,1.0391873E3,4.7703055E2,3.471267E2,4.3794702E2,2.565038E3,2.4972483E3,1.5109507E3,3.893374E3,2.8085215E3,3.1631504E3,2.177171E3,1.8495605E3,6.843237E2,8.8592145E2,2.913206E2,1.4941604E3,1.3680237E3,5.9565674E2,1.3456609E3,1.5557186E3,3.7828535E3,5.43138E3,2.8010955E3,5.297389E3,4.7410205E3,3.723575E3,1.3693374E3,4.0845715E3,3.8801474E2,6.655148E2,7.924194E2,7.5504346E2,7.0129425E2,4.0094547E2,3.3009903E2,6.8850287E2,3.5108533E2,3.760711E2,5.350308E2,7.5429663E2,7.478227E2,6.475851E2,1.4087716E3,8.02809E2,2.4230884E3,2.415563E3,1.4310574E3,2.462755E3,1.1493904E3,2.281935E3,3.3078088E3,2.1433782E3,8.143501E2,2.6844565E3,2.585702E3,2.2525776E3,2.268103E3,3.6953599E3,5.039274E3,1.3973788E3],"tree_param":{"num_deleted":"0","num_feature":"16","num_nodes":"127","size_leaf_vector":"1"}},{"base_weights":[5.9751983E-5,3.4140345E-1,-3.316837E-1,7.569631E-2,6.038468E-1,3.318555E-1,-4.273089E-1,5.0771445E-1,-6.7833304E-2,8.2991505E-1,4.4652435E-1,-3.52051E-1,5.7118636E-1,-6.1436266E-1,-9.146547E-2,9.831662E-2,7.5265795E-1,1.0571143E-1,-3.7946415E-1,5.458937E-1,1.0162045E0,6.664263E-1,2.540092E-1,-6.3318473E-1,-1.9927489E-2,3.5380274E-1,8.547699E-1,-3.2295159E-1,-7.458885E-1,1.2813635E-1,-2.911217E-1,2.8689972E-1,-3.0451182E-1,9.0392435E-1,4.6069682E-1,-2.3518507E-1,2.1274422E-1,-6.033862E-1,-1.9691825E-1,6.4700425E-1,2.510447E-1,1.19244E0,9.139986E-1,8.9182734E-1,5.7762414E-1,4.237012E-1,1.0272859E-1,-4.9561882E-1,-1.0611223E0,-2.4375892E-1,2.9267415E-1,5.517942E-1,-8.484474E-2,5.5536914E-1,9.6844786E-1,-1.2206832E-1,-5.238904E-1,-6.145926E-1,-9.5322603E-1,3.6954913E-1,-3.3764485E-2,-9.8386995E-2,-5.47524E-1,-4.1375563E-2,1.2437692E-1,1.4642051E-2,-1.7468101E-1,2.2682752E-1,3.2310295E-1,2.6121917E-1,8.8286564E-2,1.876597E-3,-1.1852229E-1,-7.8413915E-3,9.79588E-2,-5.923989E-2,-2.0513324E-1,-1.5275517E-1,-2.6112372E-2,2.3746453E-1,1.4439404E-1,1.320401E-1,5.6644473E-3,3.6404788E-1,1.9335368E-1,3.249693E-1,2.414418E-1,1.8201989E-1,2.9277393E-1,1.9494255E-1,1.149316E-1,1.6349436E-1,5.467302E-2,-4.025347E-3,9.74342E-2,-2.5132325E-1,-9.009646E-2,-3.8551924E-1,-1.5269667E-1,5.949626E-2,-1.3981462E-1,1.9027337E-1,-1.0911777E-2,2.2583853E-1,4.938077E-2,7.296903E-2,-1.4122589E-1,2.0049049E-1,-3.7158396E-2,3.572149E-1,2.4840312E-1,2.1658031E-2,-1.05097525E-1,-2.5458628E-1,-1.20491095E-1,-2.5002533E-1,-1.4750688E-1,-3.29897E-1,-2.3886822E-1,3.7238818E-2,1.5073997E-1,1.3237432E-1,-3.967929E-2,-7.359438E-2,5.8798935E-2,-7.6307185E-2,-1.9391999E-1],"categories":[],"categories_nodes":[],"categories_segments":[],"categories_sizes":[],"default_left":[0,0,0,0,0,0,0,0,0,0,0,0,0,0,0,0,0,0,0,0,0,0,0,0,0,0,0,0,0,0,0,0,0,0,0,0,0,0,0,0,0,0,0,0,0,0,0,0,0,0,0,0,0,0,0,0,0,0,0,0,0,0,0,0,0,0,0,0,0,0,0,0,0,0,0,0,0,0,0,0,0,0,0,0,0,0,0,0,0,0,0,0,0,0,0,0,0,0,0,0,0,0,0,0,0,0,0,0,0,0,0,0,0,0,0,0,0,0,0,0,0,0,0,0,0,0,0],"id":1,"left_children":[1,3,5,7,9,11,13,15,17,19,21,23,25,27,29,31,33,35,37,39,41,43,45,47,49,51,53,55,57,59,61,63,65,67,69,71,73,75,77,79,81,83,85,87,89,91,93,95,97,99,101,103,105,107,109,111,113,115,117,119,121,123,125,-1,-1,-1,-1,-1,-1,-1,-1,-1,-1,-1,-1,-1,-1,-1,-1,-1,-1,-1,-1,-1,-1,-1,-1,-1,-1,-1,-1,-1,-1,-1,-1,-1,-1,-1,-1,-1,-1,-1,-1,-1,-1,-1,-1,-1,-1,-1,-1,-1,-1,-1,-1,-1,-1,-1,-1,-1,-1,-1,-1,-1,-1,-1,-1],"loss_changes":[1.2601645E4,3.8247026E3,3.5810425E3,1.6901003E3,9.8100977E2,1.163844E3,3.0987285E3,6.8154126E2,1.10654E3,5.98479E2,6.887322E2,1.721219E2,3.243711E2,1.2140518E3,7.737612E2,1.9346605E2,1.8739478E2,4.7956952E2,2.9903467E2,1.335957E2,1.2204297E2,1.5151709E2,2.2273889E2,5.8248657E1,5.9277683E1,2.5911932E2,7.722131E1,3.9770154E2,5.936387E2,3.284963E2,4.567378E2,9.4138855E1,7.973452E1,7.083667E1,9.891229E1,1.2124887E2,2.7188525E2,1.0710474E2,1.3833987E2,7.961902E1,5.035894E1,2.8125244E1,7.916138E1,5.082495E1,7.6298706E1,1.19670715E2,1.1836717E2,5.035443E1,2.9267395E1,4.860253E1,3.9756668E1,1.598443E2,1.1767869E2,4.849092E1,5.0661743E1,2.185877E2,1.9522205E2,3.591084E2,1.936499E2,1.0999344E2,2.3547719E2,2.2834306E2,1.14809204E2,0E0,0E0,0E0,0E0,0E0,0E0,0E0,0E0,0E0,0E0,0E0,0E0,0E0,0E0,0E0,0E0,0E0,0E0,0E0,0E0,0E0,0E0,0E0,0E0,0E0,0E0,0E0,0E0,0E0,0E0,0E0,0E0,0E0,0E0,0E0,0E0,0E0,0E0,0E0,0E0,0E0,0E0,0E0,0E0,0E0,0E0,0E0,0E0,0E0,0E0,0E0,0E0,0E0,0E0,0E0,0E0,0E0,0E0,0E0,0E0,0E0,0E0,0E0,0E0],"parents":[2147483647,0,0,1,1,2,2,3,3,4,4,5,5,6,6,7,7,8,8,9,9,10,10,11,11,12,12,13,13,14,14,15,15,16,16,17,17,18,18,19,19,20,20,21,21,22,22,23,23,24,24,25,25,26,26,27,27,28,28,29,29,30,30,31,31,32,32,33,33,34,34,35,35,36,36,37,37,38,38,39,39,40,40,41,41,42,42,43,43,44,44,45,45,46,46,47,47,48,48,49,49,50,50,51,51,52,52,53,53,54,54,55,55,56,56,57,57,58,58,59,59,60,60,61,61,62,62],"right_children":[2,4,6,8,10,12,14,16,18,20,22,24,26,28,30,32,34,36,38,40,42,44,46,48,50,52,54,56,58,60,62,64,66,68,70,72,74,76,78,80,82,84,86,88,90,92,94,96,98,100,102,104,106,108,110,112,114,116,118,120,122,124,126,-1,-1,-1,-1,-1,-1,-1,-1,-1,-1,-1,-1,-1,-1,-1,-1,-1,-1,-1,-1,-1,-1,-1,-1,-1,-1,-1,-1,-1,-1,-1,-1,-1,-1,-1,-1,-1,-1,-1,-1,-1,-1,-1,-1,-1,-1,-1,-1,-1,-1,-1,-1,-1,-1,-1,-1,-1,-1,-1,-1,-1,-1,-1,-1],"split_conditions":[3.9E1,1.525E1,2.7076E4,4.1406E4,6.1962E4,9.5959E4,1.797E1,1.20934E5,7.1E1,1.21759E5,4.8E1,1.588E1,1.96781E5,3.3E1,5.2E1,7.5E1,7.1E1,5.69E0,1.24712E5,8.4E1,2.8683E4,2.3E1,2.7E1,8.7E1,6.4306E4,5.8E1,9.9E0,5.3E1,5.7E1,4.2E1,6.3E1,3.732E4,2.4948E4,1.97714E5,2.0773E4,2.6E1,9.4038E4,2.1E1,5.88E0,1E0,2E0,1.13E2,4E1,1E0,3.4E1,9.3E1,2.204E1,7.59E0,7.3871E4,3.1E1,5.1E1,6.9E1,5.6E1,9.7E1,3.7E1,1E0,6.97E0,8.3E0,1.062E1,1.02667E5,4.3553E4,1.76573E5,5.5153E4,-4.1375563E-2,1.2437692E-1,1.4642051E-2,-1.7468101E-1,2.2682752E-1,3.2310295E-1,2.6121917E-1,8.8286564E-2,1.876597E-3,-1.1852229E-1,-7.8413915E-3,9.79588E-2,-5.923989E-2,-2.0513324E-1,-1.5275517E-1,-2.6112372E-2,2.3746453E-1,1.4439404E-1,1.320401E-1,5.6644473E-3,3.6404788E-1,1.9335368E-1,3.249693E-1,2.414418E-1,1.8201989E-1,2.9277393E-1,1.9494255E-1,1.149316E-1,1.6349436E-1,5.467302E-2,-4.025347E-3,9.74342E-2,-2.5132325E-1,-9.009646E-2,-3.8551924E-1,-1.5269667E-1,5.949626E-2,-1.3981462E-1,1.9027337E-1,-1.0911777E-2,2.2583853E-1,4.938077E-2,7.296903E-2,-1.4122589E-1,2.0049049E-1,-3.7158396E-2,3.572149E-1,2.4840312E-1,2.1658031E-2,-1.05097525E-1,-2.5458628E-1,-1.20491095E-1,-2.5002533E-1,-1.4750688E-1,-3.29897E-1,-2.3886822E-1,3.7238818E-2,1.5073997E-1,1.3237432E-1,-3.967929E-2,-7.359438E-2,5.8798935E-2,-7.6307185E-2,-1.9391999E-1],"split_indices":[0,6,1,1,1,2,6,2,4,2,4,6,2,4,0,4,4,6,2,4,1,0,0,4,2,0,6,0,0,4,4,2,1,2,1,4,2,0,6,13,9,4,4,10,4,4,6,6,2,4,0,4,4,4,4,15,6,6,6,2,1,2,1,0,0,0,0,0,0,0,0,0,0,0,0,0,0,0,0,0,0,0,0,0,0,0,0,0,0,0,0,0,0,0,0,0,0,0,0,0,0,0,0,0,0,0,0,0,0,0,0,0,0,0,0,0,0,0,0,0,0,0,0,0,0,0,0],"split_type":[0,0,0,0,0,0,0,0,0,0,0,0,0,0,0,0,0,0,0,0,0,0,0,0,0,0,0,0,0,0,0,0,0,0,0,0,0,0,0,0,0,0,0,0,0,0,0,0,0,0,0,0,0,0,0,0,0,0,0,0,0,0,0,0,0,0,0,0,0,0,0,0,0,0,0,0,0,0,0,0,0,0,0,0,0,0,0,0,0,0,0,0,0,0,0,0,0,0,0,0,0,0,0,0,0,0,0,0,0,0,0,0,0,0,0,0,0,0,0,0,0,0,0,0,0,0,0],"sum_hessian":[1.1128206E5,5.484741E4,5.6434652E4,2.7254877E4,2.7592533E4,7.108259E3,4.9326395E4,6.7961655E3,2.045871E4,1.1320703E4,1.6271831E4,1.8425521E3,5.2657065E3,3.1680541E4,1.7645854E4,2.544574E3,4.251592E3,1.3141162E4,7.3175483E3,4.4856724E3,6.835031E3,7.594496E3,8.677334E3,9.9738544E2,8.451667E2,2.9820415E3,2.283665E3,9.853158E3,2.1827383E4,8.403359E3,9.242494E3,1.733383E3,8.11191E2,2.7992112E3,1.4523806E3,3.1397969E3,1.0001365E4,3.2852957E3,4.0322527E3,3.3393413E3,1.146331E3,2.50498E3,4.330051E3,2.1438496E3,5.4506465E3,4.0889468E3,4.5883877E3,7.563919E2,2.4099348E2,4.9264175E2,3.525249E2,2.054464E3,9.275774E2,6.300774E2,1.6535876E3,4.9280645E3,4.9250938E3,1.3366836E4,8.460547E3,3.3728174E3,5.0305415E3,5.277124E3,3.96537E3,4.0058316E2,1.3327999E3,3.573953E2,4.5379572E2,1.5126345E3,1.2865765E3,4.180538E2,1.0343268E3,1.2512738E3,1.8885231E3,3.2271045E3,6.774261E3,5.436577E2,2.741638E3,1.0485852E3,2.9836672E3,1.7814631E3,1.5578783E3,6.312796E2,5.1505145E2,2.4111235E3,9.385651E1,1.6946593E3,2.6353916E3,4.901617E2,1.6536879E3,3.9736997E3,1.476947E3,2.7209863E3,1.3679606E3,3.013229E3,1.5751584E3,2.7367444E2,4.8271747E2,1.7050877E2,7.048471E1,1.6486789E2,3.2777386E2,1.7251567E2,1.8000923E2,1.3517781E3,7.02686E2,5.015559E2,4.2602148E2,5.40266E2,8.981137E1,6.3736334E2,1.01622424E3,2.6626526E3,2.2654116E3,1.3454248E3,3.579669E3,4.8053213E3,8.561515E3,4.374501E3,4.0860461E3,1.1856177E3,2.1871997E3,8.633902E2,4.1671514E3,3.5202993E3,1.7568245E3,1.0009952E3,2.964375E3],"tree_param":{"num_deleted":"0","num_feature":"16","num_nodes":"127","size_leaf_vector":"1"}},{"base_weights":[2.1723079E-4,2.6994833E-1,-2.228466E-1,-3.938552E-2,4.0716428E-1,8.5826196E-2,-3.523884E-1,4.8163426E-1,-1.0632002E-1,6.1007905E-1,2.7422222E-1,-2.2398473E-1,3.6058035E-1,-6.0503036E-1,-2.0183992E-1,1.6387074E-1,7.615321E-1,1.9616172E-1,-2.2911227E-1,3.6752272E-1,7.748214E-1,3.8169056E-1,3.1324107E-2,-4.405243E-1,3.0576218E-2,5.1458204E-1,1.0929718E-1,-5.017705E-1,-7.978835E-1,-4.793057E-2,-4.1878146E-1,2.2973436E-1,-6.864677E-1,6.615448E-1,9.9632263E-1,3.838878E-1,-3.5308663E-2,-3.2504913E-1,3.0012755E-2,5.567806E-1,2.3506202E-1,1.0074937E0,7.033291E-1,2.4967003E-1,5.3620106E-1,-1.3470036E-1,2.2489646E-1,-6.7705E-1,-2.9017198E-1,3.5187662E-1,-1.0042161E-1,3.3308712E-1,7.269318E-1,3.211558E-1,-1.2770374E-1,-4.0892407E-1,-7.023125E-1,-6.1714834E-1,-9.160175E-1,6.826213E-2,-2.7386E-1,-3.212778E-1,-6.5844667E-1,8.957174E-2,-1.6390522E-1,-8.6126894E-2,-4.8220026E-1,2.1781668E-1,7.4463994E-3,-2.0049617E-1,3.0670047E-1,1.9067024E-1,8.228491E-2,1.3343791E-2,-2.6847336E-1,-4.9314614E-2,-1.483712E-1,1.1692206E-1,-3.2737743E-2,1.3936748E-1,2.556264E-1,-2.8556287E-2,1.0148731E-1,3.56458E-1,2.7961695E-1,2.494412E-1,1.7441694E-1,3.9697465E-2,1.2527162E-1,1.9669749E-1,1.1905108E-1,1.658504E-2,-8.6636625E-2,-9.051057E-3,9.014298E-2,-1.2079159E-1,-2.4331032E-1,-4.1174356E-2,-1.7606384E-1,1.9624453E-2,1.8540415E-1,4.5445194E-3,-1.2143141E-1,1.7624316E-1,4.636462E-2,3.175755E-1,1.9456886E-1,1.5393122E-2,1.4750785E-1,5.0311614E-2,-9.789143E-2,-2.1227275E-1,-9.59157E-2,-2.618894E-1,-1.7639135E-1,-1.3062626E-1,-2.4648865E-1,-3.075065E-1,-2.2502105E-1,6.0085636E-2,-2.4721691E-2,-1.3238573E-1,-3.375754E-2,-1.319971E-1,-3.2505732E-2,-2.2010435E-1,-1.3228811E-1],"categories":[],"categories_nodes":[],"categories_segments":[],"categories_sizes":[],"default_left":[0,0,0,0,0,0,0,0,0,0,0,0,0,0,0,0,0,0,0,0,0,0,0,0,0,0,0,0,0,0,0,0,0,0,0,0,0,0,0,0,0,0,0,0,0,0,0,0,0,0,0,0,0,0,0,0,0,0,0,0,0,0,0,0,0,0,0,0,0,0,0,0,0,0,0,0,0,0,0,0,0,0,0,0,0,0,0,0,0,0,0,0,0,0,0,0,0,0,0,0,0,0,0,0,0,0,0,0,0,0,0,0,0,0,0,0,0,0,0,0,0,0,0,0,0,0,0],"id":2,"left_children":[1,3,5,7,9,11,13,15,17,19,21,23,25,27,29,31,33,35,37,39,41,43,45,47,49,51,53,55,57,59,61,63,65,67,69,71,73,75,77,79,81,83,85,87,89,91,93,95,97,99,101,103,105,107,109,111,113,115,117,119,121,123,125,-1,-1,-1,-1,-1,-1,-1,-1,-1,-1,-1,-1,-1,-1,-1,-1,-1,-1,-1,-1,-1,-1,-1,-1,-1,-1,-1,-1,-1,-1,-1,-1,-1,-1,-1,-1,-1,-1,-1,-1,-1,-1,-1,-1,-1,-1,-1,-1,-1,-1,-1,-1,-1,-1,-1,-1,-1,-1,-1,-1,-1,-1,-1,-1],"loss_changes":[6.531406E3,2.0856658E3,2.3758828E3,5.266436E2,9.1804736E2,1.4952668E3,1.5917441E3,1.527818E2,4.970693E2,5.3806885E2,5.3685974E2,4.5513477E2,3.6021106E2,3.1079688E2,8.7567456E2,4.532157E1,2.0792786E1,1.6792888E2,2.3663107E2,1.3652704E2,1.327373E2,2.907129E2,2.0280528E2,1.584649E2,1.5980861E2,2.222091E2,1.7772696E2,1.8926636E2,1.1574902E2,4.0280243E2,2.5413843E2,4.018772E1,2.0950851E1,2.6428009E1,1.2415222E1,5.868872E1,1.18792114E2,1.8911877E2,1.2881293E2,6.070874E1,1.0941521E2,2.4564575E1,9.545776E1,1.514674E2,1.0909534E2,9.946323E1,5.617491E1,6.339502E1,1.23762024E2,8.3795074E1,9.48826E1,1.4133704E2,6.842456E1,8.5974335E1,9.809033E1,1.8522412E2,6.2322998E1,7.977307E1,5.8786377E1,2.0158246E2,1.4071216E2,1.955647E2,5.116333E1,0E0,0E0,0E0,0E0,0E0,0E0,0E0,0E0,0E0,0E0,0E0,0E0,0E0,0E0,0E0,0E0,0E0,0E0,0E0,0E0,0E0,0E0,0E0,0E0,0E0,0E0,0E0,0E0,0E0,0E0,0E0,0E0,0E0,0E0,0E0,0E0,0E0,0E0,0E0,0E0,0E0,0E0,0E0,0E0,0E0,0E0,0E0,0E0,0E0,0E0,0E0,0E0,0E0,0E0,0E0,0E0,0E0,0E0,0E0,0E0,0E0,0E0,0E0,0E0],"parents":[2147483647,0,0,1,1,2,2,3,3,4,4,5,5,6,6,7,7,8,8,9,9,10,10,11,11,12,12,13,13,14,14,15,15,16,16,17,17,18,18,19,19,20,20,21,21,22,22,23,23,24,24,25,25,26,26,27,27,28,28,29,29,30,30,31,31,32,32,33,33,34,34,35,35,36,36,37,37,38,38,39,39,40,40,41,41,42,42,43,43,44,44,45,45,46,46,47,47,48,48,49,49,50,50,51,51,52,52,53,53,54,54,55,55,56,56,57,57,58,58,59,59,60,60,61,61,62,62],"right_children":[2,4,6,8,10,12,14,16,18,20,22,24,26,28,30,32,34,36,38,40,42,44,46,48,50,52,54,56,58,60,62,64,66,68,70,72,74,76,78,80,82,84,86,88,90,92,94,96,98,100,102,104,106,108,110,112,114,116,118,120,122,124,126,-1,-1,-1,-1,-1,-1,-1,-1,-1,-1,-1,-1,-1,-1,-1,-1,-1,-1,-1,-1,-1,-1,-1,-1,-1,-1,-1,-1,-1,-1,-1,-1,-1,-1,-1,-1,-1,-1,-1,-1,-1,-1,-1,-1,-1,-1,-1,-1,-1,-1,-1,-1,-1,-1,-1,-1,-1,-1,-1,-1,-1,-1,-1,-1],"split_conditions":[3.7E1,1.071E1,4.831E4,2.5474E4,6.0906E4,1.42066E5,1.195E1,1.46797E5,2.9E1,1.22804E5,7.7E1,1.607E1,5.5E1,7.4E1,6.4E1,1.09E2,4E0,1E0,1.91837E5,2.5E1,2.342E4,1.916E1,1.916E1,6.4306E4,2.9E1,1.607E1,5.6E1,5.8E1,4.9E1,5.7E1,5.9E1,7.91E2,2.9E1,1.03E2,2.28E0,2.3E1,7.85E2,1E0,5.4097E4,2.222E1,3.8338E4,3.1E1,5.1E1,1.57289E5,1E0,5.29E2,1E0,2.4948E4,5.7E1,8.4474E4,5.9E1,4.1E1,1.9178E4,1.275E1,2.5474E4,1E0,1.07502E5,1E0,1.58295E5,1E0,1.897E1,2.085E1,3E0,8.957174E-2,-1.6390522E-1,-8.6126894E-2,-4.8220026E-1,2.1781668E-1,7.4463994E-3,-2.0049617E-1,3.0670047E-1,1.9067024E-1,8.228491E-2,1.3343791E-2,-2.6847336E-1,-4.9314614E-2,-1.483712E-1,1.1692206E-1,-3.2737743E-2,1.3936748E-1,2.556264E-1,-2.8556287E-2,1.0148731E-1,3.56458E-1,2.7961695E-1,2.494412E-1,1.7441694E-1,3.9697465E-2,1.2527162E-1,1.9669749E-1,1.1905108E-1,1.658504E-2,-8.6636625E-2,-9.051057E-3,9.014298E-2,-1.2079159E-1,-2.4331032E-1,-4.1174356E-2,-1.7606384E-1,1.9624453E-2,1.8540415E-1,4.5445194E-3,-1.2143141E-1,1.7624316E-1,4.636462E-2,3.175755E-1,1.9456886E-1,1.5393122E-2,1.4750785E-1,5.0311614E-2,-9.789143E-2,-2.1227275E-1,-9.59157E-2,-2.618894E-1,-1.7639135E-1,-1.3062626E-1,-2.4648865E-1,-3.075065E-1,-2.2502105E-1,6.0085636E-2,-2.4721691E-2,-1.3238573E-1,-3.375754E-2,-1.319971E-1,-3.2505732E-2,-2.2010435E-1,-1.3228811E-1],"split_indices":[0,6,1,1,1,2,6,2,4,2,4,6,0,4,4,4,5,13,2,0,1,6,6,2,4,6,4,0,0,0,0,3,0,4,6,0,3,15,1,6,2,4,4,2,15,3,10,1,0,2,0,4,1,6,1,10,2,13,2,13,6,6,10,0,0,0,0,0,0,0,0,0,0,0,0,0,0,0,0,0,0,0,0,0,0,0,0,0,0,0,0,0,0,0,0,0,0,0,0,0,0,0,0,0,0,0,0,0,0,0,0,0,0,0,0,0,0,0,0,0,0,0,0,0,0,0,0],"split_type":[0,0,0,0,0,0,0,0,0,0,0,0,0,0,0,0,0,0,0,0,0,0,0,0,0,0,0,0,0,0,0,0,0,0,0,0,0,0,0,0,0,0,0,0,0,0,0,0,0,0,0,0,0,0,0,0,0,0,0,0,0,0,0,0,0,0,0,0,0,0,0,0,0,0,0,0,0,0,0,0,0,0,0,0,0,0,0,0,0,0,0,0,0,0,0,0,0,0,0,0,0,0,0,0,0,0,0,0,0,0,0,0,0,0,0,0,0,0,0,0,0,0,0,0,0,0,0],"sum_hessian":[1.0855216E5,4.9136086E4,5.9416074E4,1.50987705E4,3.4037316E4,1.7564246E4,4.185183E4,1.7181846E3,1.3380585E4,1.3471554E4,2.0565762E4,8.25554E3,9.308706E3,1.5626052E4,2.6225775E4,8.054059E2,9.1277875E2,3.8632947E3,9.517291E3,5.450219E3,8.021334E3,1.4257204E4,6.3085576E3,4.4605176E3,3.7950225E3,5.770899E3,3.5378074E3,1.0179316E4,5.446736E3,1.5342351E4,1.0883424E4,7.481845E2,5.722137E1,6.4283856E2,2.699402E2,2.1328564E3,1.7304384E3,6.945556E3,2.5717346E3,2.2426914E3,3.207528E3,1.8822961E3,6.1390376E3,7.689539E3,6.567665E3,3.3960847E3,2.9124731E3,1.7321284E3,2.728389E3,1.098653E3,2.6963694E3,3.1128882E3,2.6580105E3,1.8677992E3,1.6700082E3,6.960023E3,3.219293E3,2.1553916E3,3.2913445E3,1.013219E4,5.210161E3,7.7377812E3,3.1456423E3,6.8779315E2,6.0391388E1,4.082668E1,1.6394695E1,5.835726E2,5.9266003E1,3.773347E0,2.6616684E2,6.456003E2,1.4872561E3,1.5843297E3,1.4610861E2,3.5669165E3,3.3786396E3,7.1677936E2,1.8549552E3,1.7109479E3,5.3174347E2,7.638622E2,2.443666E3,5.5002795E2,1.3322682E3,2.9905532E3,3.1484844E3,4.527264E3,3.162275E3,3.5344097E3,3.0332554E3,1.5211805E3,1.874904E3,6.6587823E2,2.246595E3,5.695817E2,1.1625468E3,1.8014021E3,9.269869E2,5.297223E2,5.689307E2,1.9549653E3,7.4140405E2,1.2828013E3,1.8300868E3,5.0564386E2,2.1523667E3,7.238044E2,1.1439948E3,6.7143604E2,9.985722E2,1.5991754E3,5.3608477E3,1.2889412E3,1.9303518E3,1.1428439E3,1.01254767E3,1.9833704E3,1.3079741E3,5.400046E3,4.732144E3,2.5559653E3,2.6541956E3,4.9672944E3,2.7704868E3,2.3353926E3,8.102499E2],"tree_param":{"num_deleted":"0","num_feature":"16","num_nodes":"127","size_leaf_vector":"1"}},{"base_weights":[2.1658398E-4,1.3773768E-1,-2.506339E-1,-7.3259147E-3,2.9941845E-1,-4.8143068E-1,-1.4897834E-1,2.6578948E-1,-8.472143E-2,1.8080209E-1,4.6503136E-1,-2.860482E-1,-6.288453E-1,-2.7251488E-1,2.6910935E-2,4.3802537E-2,5.009246E-1,7.263483E-2,-2.0340984E-1,3.8540822E-1,7.533724E-2,7.753705E-1,3.7988365E-1,-4.5581183E-1,8.472128E-2,-8.2088286E-1,-5.705092E-1,1.4116001E-2,-3.4530511E-1,2.6775455E-1,-1.4884597E-1,1.3465726E-1,-3.7960473E-1,6.788844E-1,3.5703415E-1,1.4085582E-1,-2.2468515E-1,-9.8676056E-2,-3.9386794E-1,6.003083E-1,3.0167854E-1,-2.0410916E-1,1.5450947E-1,9.5563734E-1,6.823525E-1,5.043342E-1,2.3923472E-1,-3.4788796E-1,-8.0534714E-1,1.8989983E-1,-3.659307E-1,-6.9886714E-1,-1.0047973E0,-4.5467496E-1,-6.980448E-1,-6.367129E-2,3.1040883E-1,-2.0859653E-1,-4.9608424E-1,3.564571E-1,-5.0929885E-2,-7.252926E-2,-4.1360137E-1,-3.6720637E-2,8.226405E-2,-2.6364568E-1,-8.468103E-2,9.473327E-2,2.2999652E-1,1.6267379E-1,6.3544296E-2,-8.6532325E-2,5.831996E-2,-8.8224396E-2,1.4514294E-1,5.094338E-3,-8.12053E-2,-2.2145815E-1,-9.4753034E-2,1.3686697E-1,2.2727041E-1,1.4614573E-1,5.405936E-2,-7.4938904E-3,-1.2725836E-1,1.0671373E-1,1.7822E-2,2.616415E-1,3.2126778E-1,2.539503E-1,1.7812182E-1,2.1226133E-1,1.2702706E-1,1.08690925E-1,1.6985025E-2,-2.5687507E-1,-8.543511E-2,-1.325952E-2,-2.5442997E-1,1.24608494E-1,1.2470738E-3,-2.58898E-1,-2.8221833E-2,-1.4625543E-1,-2.4481855E-1,-2.4370976E-1,-3.6234474E-1,-1.7803435E-1,-8.5362665E-2,-2.2785561E-1,-1.380773E-1,1.0020337E-1,-3.4825567E-2,-5.3969424E-2,1.3070229E-1,-2.2394082E-2,-1.0679029E-1,-5.7225894E-2,-1.6776672E-1,1.2389236E-1,3.3153002E-3,-7.072562E-2,8.785409E-2,1.912676E-2,-7.355274E-2,-1.945966E-1,-6.011549E-2],"categories":[],"categories_nodes":[],"categories_segments":[],"categories_sizes":[],"default_left":[0,0,0,0,0,0,0,0,0,0,0,0,0,0,0,0,0,0,0,0,0,0,0,0,0,0,0,0,0,0,0,0,0,0,0,0,0,0,0,0,0,0,0,0,0,0,0,0,0,0,0,0,0,0,0,0,0,0,0,0,0,0,0,0,0,0,0,0,0,0,0,0,0,0,0,0,0,0,0,0,0,0,0,0,0,0,0,0,0,0,0,0,0,0,0,0,0,0,0,0,0,0,0,0,0,0,0,0,0,0,0,0,0,0,0,0,0,0,0,0,0,0,0,0,0,0,0],"id":3,"left_children":[1,3,5,7,9,11,13,15,17,19,21,23,25,27,29,31,33,35,37,39,41,43,45,47,49,51,53,55,57,59,61,63,65,67,69,71,73,75,77,79,81,83,85,87,89,91,93,95,97,99,101,103,105,107,109,111,113,115,117,119,121,123,125,-1,-1,-1,-1,-1,-1,-1,-1,-1,-1,-1,-1,-1,-1,-1,-1,-1,-1,-1,-1,-1,-1,-1,-1,-1,-1,-1,-1,-1,-1,-1,-1,-1,-1,-1,-1,-1,-1,-1,-1,-1,-1,-1,-1,-1,-1,-1,-1,-1,-1,-1,-1,-1,-1,-1,-1,-1,-1,-1,-1,-1,-1,-1,-1],"loss_changes":[3.6460574E3,1.601121E3,8.779839E2,7.60633E2,6.3411816E2,3.294087E2,5.645806E2,4.147149E2,5.2367444E2,4.0592645E2,3.557085E2,3.098946E2,7.258862E1,3.1844983E2,4.5385214E2,1.5731729E2,9.855969E1,2.4457413E2,3.187879E2,1.1495148E2,2.747099E2,4.7968994E1,1.849607E2,1.27105774E2,7.339224E1,3.3343872E1,7.362427E1,7.128418E1,2.5079395E2,1.2788339E2,1.2521303E2,1.2080974E2,3.4859802E1,5.469867E1,5.732376E1,2.2547815E2,1.1078954E2,2.0518774E2,1.5211108E2,4.028192E1,1.0370447E2,1.0806301E2,1.8510678E2,8.5401E0,2.7369507E1,9.192029E1,1.1158188E2,8.258472E1,2.5862366E1,5.2549446E1,3.952059E1,2.2274567E1,2.2569153E1,6.182556E1,3.4446533E1,5.110453E1,3.957874E1,1.2602606E2,1.11462524E2,6.907303E1,6.2701694E1,1.1325657E2,6.93699E1,0E0,0E0,0E0,0E0,0E0,0E0,0E0,0E0,0E0,0E0,0E0,0E0,0E0,0E0,0E0,0E0,0E0,0E0,0E0,0E0,0E0,0E0,0E0,0E0,0E0,0E0,0E0,0E0,0E0,0E0,0E0,0E0,0E0,0E0,0E0,0E0,0E0,0E0,0E0,0E0,0E0,0E0,0E0,0E0,0E0,0E0,0E0,0E0,0E0,0E0,0E0,0E0,0E0,0E0,0E0,0E0,0E0,0E0,0E0,0E0,0E0,0E0,0E0,0E0],"parents":[2147483647,0,0,1,1,2,2,3,3,4,4,5,5,6,6,7,7,8,8,9,9,10,10,11,11,12,12,13,13,14,14,15,15,16,16,17,17,18,18,19,19,20,20,21,21,22,22,23,23,24,24,25,25,26,26,27,27,28,28,29,29,30,30,31,31,32,32,33,33,34,34,35,35,36,36,37,37,38,38,39,39,40,40,41,41,42,42,43,43,44,44,45,45,46,46,47,47,48,48,49,49,50,50,51,51,52,52,53,53,54,54,55,55,56,56,57,57,58,58,59,59,60,60,61,61,62,62],"right_children":[2,4,6,8,10,12,14,16,18,20,22,24,26,28,30,32,34,36,38,40,42,44,46,48,50,52,54,56,58,60,62,64,66,68,70,72,74,76,78,80,82,84,86,88,90,92,94,96,98,100,102,104,106,108,110,112,114,116,118,120,122,124,126,-1,-1,-1,-1,-1,-1,-1,-1,-1,-1,-1,-1,-1,-1,-1,-1,-1,-1,-1,-1,-1,-1,-1,-1,-1,-1,-1,-1,-1,-1,-1,-1,-1,-1,-1,-1,-1,-1,-1,-1,-1,-1,-1,-1,-1,-1,-1,-1,-1,-1,-1,-1,-1,-1,-1,-1,-1,-1,-1,-1,-1,-1,-1,-1],"split_conditions":[4.7E1,1.571E1,1.044E1,3.8816E4,1.57289E5,6.6218E4,1.58295E5,1.54391E5,2.9E1,3.5E1,3.6648E4,1.8799E5,1E0,2E1,6.1962E4,9.4E1,4.6E1,9.3E1,7.1E1,4.7768E4,1E0,2.134E4,1E0,8.8E1,9.2E1,6.7E1,5.8E1,2.249E1,1E0,8.8E1,8.9E1,7.59E0,4.79E0,1E0,2.9E1,3.98E0,2.33785E5,6.13E2,4.98E0,9.3115E4,2.8E1,2E0,2.6E1,2.15767E5,3.7E1,2.8E1,3.4E1,3.0689E4,4.8E1,5.29E2,2E0,9.4577E4,1E0,6.97E0,8.84E0,3.54E2,1E0,1E0,3.345E4,6.6E1,2.24254E5,5.91E2,3E0,-3.6720637E-2,8.226405E-2,-2.6364568E-1,-8.468103E-2,9.473327E-2,2.2999652E-1,1.6267379E-1,6.3544296E-2,-8.6532325E-2,5.831996E-2,-8.8224396E-2,1.4514294E-1,5.094338E-3,-8.12053E-2,-2.2145815E-1,-9.4753034E-2,1.3686697E-1,2.2727041E-1,1.4614573E-1,5.405936E-2,-7.4938904E-3,-1.2725836E-1,1.0671373E-1,1.7822E-2,2.616415E-1,3.2126778E-1,2.539503E-1,1.7812182E-1,2.1226133E-1,1.2702706E-1,1.08690925E-1,1.6985025E-2,-2.5687507E-1,-8.543511E-2,-1.325952E-2,-2.5442997E-1,1.24608494E-1,1.2470738E-3,-2.58898E-1,-2.8221833E-2,-1.4625543E-1,-2.4481855E-1,-2.4370976E-1,-3.6234474E-1,-1.7803435E-1,-8.5362665E-2,-2.2785561E-1,-1.380773E-1,1.0020337E-1,-3.4825567E-2,-5.3969424E-2,1.3070229E-1,-2.2394082E-2,-1.0679029E-1,-5.7225894E-2,-1.6776672E-1,1.2389236E-1,3.3153002E-3,-7.072562E-2,8.785409E-2,1.912676E-2,-7.355274E-2,-1.945966E-1,-6.011549E-2],"split_indices":[0,6,6,1,2,1,2,2,0,4,1,2,10,4,1,4,4,4,4,1,10,1,15,4,4,4,0,6,15,4,4,6,6,10,0,6,2,3,6,2,0,9,0,2,4,4,0,2,0,3,14,1,13,6,6,3,10,13,1,0,2,3,5,0,0,0,0,0,0,0,0,0,0,0,0,0,0,0,0,0,0,0,0,0,0,0,0,0,0,0,0,0,0,0,0,0,0,0,0,0,0,0,0,0,0,0,0,0,0,0,0,0,0,0,0,0,0,0,0,0,0,0,0,0,0,0,0],"split_type":[0,0,0,0,0,0,0,0,0,0,0,0,0,0,0,0,0,0,0,0,0,0,0,0,0,0,0,0,0,0,0,0,0,0,0,0,0,0,0,0,0,0,0,0,0,0,0,0,0,0,0,0,0,0,0,0,0,0,0,0,0,0,0,0,0,0,0,0,0,0,0,0,0,0,0,0,0,0,0,0,0,0,0,0,0,0,0,0,0,0,0,0,0,0,0,0,0,0,0,0,0,0,0,0,0,0,0,0,0,0,0,0,0,0,0,0,0,0,0,0,0,0,0,0,0,0,0],"sum_hessian":[1.05689305E5,6.826536E4,3.742394E4,3.5982246E4,3.2283115E4,1.1442157E4,2.5981781E4,7.94462E3,2.8037627E4,1.8811738E4,1.3471376E4,4.921788E3,6.5203696E3,1.5261945E4,1.0719837E4,4.0871753E3,3.8574448E3,1.2055249E4,1.5982377E4,6.397559E3,1.241418E4,2.8986223E3,1.0572754E4,3.3758594E3,1.5459287E3,1.5161737E3,5.0041963E3,3.0910244E3,1.2170921E4,4.522302E3,6.197535E3,3.3656553E3,7.2152026E2,1.722896E3,2.1345488E3,9.805804E3,2.2494456E3,1.0312825E4,5.669552E3,1.792015E3,4.605544E3,2.7403298E3,9.67385E3,9.8344763E2,1.9151747E3,5.608018E3,4.9647354E3,2.5809504E3,7.949089E2,1.2538652E3,2.9206345E2,9.143559E2,6.018178E2,2.6247917E3,2.3794043E3,2.44889E3,6.421346E2,6.3845513E3,5.786369E3,3.5375442E3,9.8475757E2,4.8117925E3,1.3857427E3,1.1843086E3,2.1813464E3,1.1641536E2,6.051049E2,3.3628476E2,1.3866112E3,9.369012E2,1.1976476E3,1.0869159E3,8.718888E3,2.0493037E3,2.0014175E2,6.167047E3,4.1457783E3,1.0458235E3,4.6237285E3,9.3721625E2,8.5479877E2,1.8215039E3,2.78404E3,1.5113453E3,1.2289846E3,3.104056E3,6.569794E3,5.7525745E2,4.0819022E2,6.684229E2,1.2467517E3,1.5948578E3,4.0131604E3,2.9653606E3,1.9993748E3,2.8361398E2,2.2973364E3,4.238267E1,7.5252625E2,5.658178E2,6.8804736E2,1.0249257E2,1.8957088E2,3.28E2,5.863559E2,3.115324E2,2.9028537E2,1.4442592E3,1.1805326E3,1.8888859E3,4.905184E2,2.8454868E2,2.1643413E3,1.3058194E2,5.1155267E2,3.3453647E3,3.0391865E3,9.9219745E2,4.794172E3,3.0399363E3,4.9760797E2,6.40646E2,3.441115E2,2.689424E3,2.1223684E3,6.5814667E2,7.27596E2],"tree_param":{"num_deleted":"0","num_feature":"16","num_nodes":"127","size_leaf_vector":"1"}},{"base_weights":[1.2875519E-4,1.7462285E-1,-1.10702015E-1,-1.390254E-2,2.5282264E-1,-2.00974E-1,5.4418407E-2,1.1386366E-1,-1.5705071E-1,5.005742E-2,3.2405308E-1,-3.8749748E-1,-1.1767865E-1,3.5789728E-1,1.9227488E-3,3.2203218E-1,1.6771995E-2,-5.6490403E-1,-9.6748404E-2,-2.3119414E-2,2.517553E-1,4.7368133E-1,2.1495222E-1,-2.8945965E-1,-5.68547E-1,4.580867E-2,-2.543293E-1,-4.7879618E-2,4.423562E-1,1.1622915E-1,-1.2599362E-1,5.1499003E-1,1.3777894E-1,1.6405359E-1,-1.4809015E-1,-4.1072652E-1,-8.9937156E-1,2.3227912E-1,-1.5719716E-1,4.60467E-2,-2.6078898E-1,3.181674E-1,1.2111452E-2,7.270528E-1,4.1547492E-1,1.4335585E-1,4.0593898E-1,-2.3210745E-1,-5.196722E-1,-4.2117307E-1,-7.2784513E-1,4.8650593E-1,-7.0144627E-3,-1.6105129E-1,-3.927896E-1,7.015284E-1,-1.16579056E-1,6.989274E-1,3.546485E-1,3.8133532E-1,5.057659E-2,-3.481815E-2,-3.390169E-1,-6.699185E-2,1.718188E-1,-4.327239E-2,8.739104E-2,1.901006E-2,1.7240907E-1,2.807762E-2,-8.617816E-2,3.7608333E-2,-1.6449308E-1,-4.057911E-2,-3.3580932E-1,3.250086E-2,2.1786149E-1,2.1829136E-2,-7.365397E-2,1.9725606E-2,-2.601458E-1,-1.3129935E-1,-2.7735302E-2,1.3382488E-1,4.84467E-2,1.7388921E-2,-3.0261952E-1,1.9158855E-1,2.6473162E-1,1.5614042E-1,8.895155E-2,7.640611E-2,5.1499354E-3,1.3422205E-1,-5.9592564E-2,-1.2417495E-1,-4.4575572E-2,-2.5383094E-1,-1.1858396E-1,-1.04026824E-1,-2.4857001E-1,-3.1873205E-1,-2.0329936E-1,1.6910325E-1,6.484875E-3,3.867716E-2,-4.694973E-2,-1.21927395E-1,-2.6628017E-2,1.6721329E-3,-1.3052066E-1,3.0444628E-1,-4.8247495E-1,-2.1408968E-1,-1.015211E-2,2.4282926E-1,1.3331445E-1,-5.425831E-2,1.21590205E-1,1.5514866E-1,6.572602E-2,-7.465192E-2,3.6011647E-2,-9.279208E-2,1.3265627E-2,-5.027755E-2,-1.823918E-1],"categories":[],"categories_nodes":[],"categories_segments":[],"categories_sizes":[],"default_left":[0,0,0,0,0,0,0,0,0,0,0,0,0,0,0,0,0,0,0,0,0,0,0,0,0,0,0,0,0,0,0,0,0,0,0,0,0,0,0,0,0,0,0,0,0,0,0,0,0,0,0,0,0,0,0,0,0,0,0,0,0,0,0,0,0,0,0,0,0,0,0,0,0,0,0,0,0,0,0,0,0,0,0,0,0,0,0,0,0,0,0,0,0,0,0,0,0,0,0,0,0,0,0,0,0,0,0,0,0,0,0,0,0,0,0,0,0,0,0,0,0,0,0,0,0,0,0],"id":4,"left_children":[1,3,5,7,9,11,13,15,17,19,21,23,25,27,29,31,33,35,37,39,41,43,45,47,49,51,53,55,57,59,61,63,65,67,69,71,73,75,77,79,81,83,85,87,89,91,93,95,97,99,101,103,105,107,109,111,113,115,117,119,121,123,125,-1,-1,-1,-1,-1,-1,-1,-1,-1,-1,-1,-1,-1,-1,-1,-1,-1,-1,-1,-1,-1,-1,-1,-1,-1,-1,-1,-1,-1,-1,-1,-1,-1,-1,-1,-1,-1,-1,-1,-1,-1,-1,-1,-1,-1,-1,-1,-1,-1,-1,-1,-1,-1,-1,-1,-1,-1,-1,-1,-1,-1,-1,-1,-1],"loss_changes":[1.9966643E3,5.912384E2,9.411608E2,2.1507959E2,4.093861E2,6.3419556E2,3.5556287E2,1.2558386E2,1.3634589E2,1.0878801E2,3.4233398E2,2.2351392E2,6.305031E2,1.128194E2,2.7823862E2,7.019304E1,1.0293915E2,3.6458023E1,9.615787E1,8.893004E1,3.122483E1,1.3013708E2,1.6584906E2,1.078432E2,1.0359387E2,2.9913852E2,1.9848016E2,2.9321404E1,6.105945E1,1.7488605E2,1.7440237E2,4.1263977E1,4.3872616E1,9.254076E1,6.73103E1,3.6259003E1,3.758528E1,4.5864796E1,8.294731E1,7.546681E1,3.6268486E1,3.0719223E1,2.0036806E1,2.212024E1,8.9714355E1,1.2399608E2,8.301465E1,9.937134E1,6.585416E1,6.948074E1,3.4966797E1,4.9331726E1,2.3321231E2,1.6292035E2,1.0420776E2,3.6246674E1,2.571802E1,1.9133911E1,5.5200256E1,4.384137E1,1.675729E2,1.3646501E2,1.23987305E2,0E0,0E0,0E0,0E0,0E0,0E0,0E0,0E0,0E0,0E0,0E0,0E0,0E0,0E0,0E0,0E0,0E0,0E0,0E0,0E0,0E0,0E0,0E0,0E0,0E0,0E0,0E0,0E0,0E0,0E0,0E0,0E0,0E0,0E0,0E0,0E0,0E0,0E0,0E0,0E0,0E0,0E0,0E0,0E0,0E0,0E0,0E0,0E0,0E0,0E0,0E0,0E0,0E0,0E0,0E0,0E0,0E0,0E0,0E0,0E0,0E0,0E0,0E0,0E0],"parents":[2147483647,0,0,1,1,2,2,3,3,4,4,5,5,6,6,7,7,8,8,9,9,10,10,11,11,12,12,13,13,14,14,15,15,16,16,17,17,18,18,19,19,20,20,21,21,22,22,23,23,24,24,25,25,26,26,27,27,28,28,29,29,30,30,31,31,32,32,33,33,34,34,35,35,36,36,37,37,38,38,39,39,40,40,41,41,42,42,43,43,44,44,45,45,46,46,47,47,48,48,49,49,50,50,51,51,52,52,53,53,54,54,55,55,56,56,57,57,58,58,59,59,60,60,61,61,62,62],"right_children":[2,4,6,8,10,12,14,16,18,20,22,24,26,28,30,32,34,36,38,40,42,44,46,48,50,52,54,56,58,60,62,64,66,68,70,72,74,76,78,80,82,84,86,88,90,92,94,96,98,100,102,104,106,108,110,112,114,116,118,120,122,124,126,-1,-1,-1,-1,-1,-1,-1,-1,-1,-1,-1,-1,-1,-1,-1,-1,-1,-1,-1,-1,-1,-1,-1,-1,-1,-1,-1,-1,-1,-1,-1,-1,-1,-1,-1,-1,-1,-1,-1,-1,-1,-1,-1,-1,-1,-1,-1,-1,-1,-1,-1,-1,-1,-1,-1,-1,-1,-1,-1,-1,-1,-1,-1,-1],"split_conditions":[3.4E1,1.017E1,1.834E1,1E0,7.6779E4,9.0267E4,3.0272E4,4.61E2,4.2153E4,2.167E1,6.5696E4,7.1E1,6.7311E4,6.2374E4,1E0,4.8E1,2E0,2E0,3.0272E4,8.8E1,3E0,2.2899E4,3E0,6.1E1,1E0,1.8671E4,5.3E1,1.6046E4,1.8126E4,1.9E1,7.8E1,2.99E0,4.2E-1,2.13858E5,3.6E1,3.7747E4,3.88E2,2.19523E5,4.39E2,8.33E2,5.2E-1,1E0,8.21E2,1.94827E5,1E0,1E0,1.09E2,8.04E0,3.0689E4,6.3E1,1.6441E4,6.3E1,5.5E1,1E0,3.46E2,6.8E-1,2.4E-1,5.6E1,1.9E-1,1E0,5.8613E4,1E0,6.21E2,-6.699185E-2,1.718188E-1,-4.327239E-2,8.739104E-2,1.901006E-2,1.7240907E-1,2.807762E-2,-8.617816E-2,3.7608333E-2,-1.6449308E-1,-4.057911E-2,-3.3580932E-1,3.250086E-2,2.1786149E-1,2.1829136E-2,-7.365397E-2,1.9725606E-2,-2.601458E-1,-1.3129935E-1,-2.7735302E-2,1.3382488E-1,4.84467E-2,1.7388921E-2,-3.0261952E-1,1.9158855E-1,2.6473162E-1,1.5614042E-1,8.895155E-2,7.640611E-2,5.1499354E-3,1.3422205E-1,-5.9592564E-2,-1.2417495E-1,-4.4575572E-2,-2.5383094E-1,-1.1858396E-1,-1.04026824E-1,-2.4857001E-1,-3.1873205E-1,-2.0329936E-1,1.6910325E-1,6.484875E-3,3.867716E-2,-4.694973E-2,-1.21927395E-1,-2.6628017E-2,1.6721329E-3,-1.3052066E-1,3.0444628E-1,-4.8247495E-1,-2.1408968E-1,-1.015211E-2,2.4282926E-1,1.3331445E-1,-5.425831E-2,1.21590205E-1,1.5514866E-1,6.572602E-2,-7.465192E-2,3.6011647E-2,-9.279208E-2,1.3265627E-2,-5.027755E-2,-1.823918E-1],"split_indices":[0,6,6,13,2,2,1,3,2,6,1,4,1,2,15,4,9,11,1,4,9,1,10,0,15,1,0,1,1,4,4,6,8,2,4,1,3,2,3,3,8,12,3,2,15,15,4,6,2,0,2,0,4,10,3,8,8,0,8,13,2,10,3,0,0,0,0,0,0,0,0,0,0,0,0,0,0,0,0,0,0,0,0,0,0,0,0,0,0,0,0,0,0,0,0,0,0,0,0,0,0,0,0,0,0,0,0,0,0,0,0,0,0,0,0,0,0,0,0,0,0,0,0,0,0,0,0],"split_type":[0,0,0,0,0,0,0,0,0,0,0,0,0,0,0,0,0,0,0,0,0,0,0,0,0,0,0,0,0,0,0,0,0,0,0,0,0,0,0,0,0,0,0,0,0,0,0,0,0,0,0,0,0,0,0,0,0,0,0,0,0,0,0,0,0,0,0,0,0,0,0,0,0,0,0,0,0,0,0,0,0,0,0,0,0,0,0,0,0,0,0,0,0,0,0,0,0,0,0,0,0,0,0,0,0,0,0,0,0,0,0,0,0,0,0,0,0,0,0,0,0,0,0,0,0,0,0],"sum_hessian":[1.0324179E5,4.010272E4,6.313907E4,1.1757753E4,2.8344967E4,4.082155E4,2.231752E4,6.2127754E3,5.5449775E3,7.3692603E3,2.0975707E4,1.2600829E4,2.822072E4,3.2903127E3,1.9027207E4,1.9753109E3,4.2374644E3,7.131611E2,4.8318164E3,5.4080737E3,1.9611864E3,8.843625E3,1.2132082E4,8.176094E3,4.4247354E3,1.2848993E4,1.5371728E4,5.669371E2,2.7233757E3,1.0048201E4,8.979007E3,9.6398724E2,1.0113237E3,2.238066E3,1.9993984E3,4.8966913E2,2.2349194E2,7.4948206E2,4.0823345E3,4.189624E3,1.2184496E3,1.5353655E3,4.2582092E2,1.649946E3,7.1936787E3,8.825401E3,3.306681E3,6.5470537E3,1.6290404E3,2.300283E3,2.1244524E3,1.3743918E3,1.1474602E4,9.185678E3,6.1860493E3,4.6834232E1,5.2010284E2,6.920256E2,2.0313501E3,1.9935206E3,8.05468E3,6.2886035E3,2.690403E3,6.971336E1,8.9427386E2,3.5650128E2,6.5482245E2,1.7982922E3,4.397738E2,7.307358E2,1.2686627E3,1.0002317E2,3.8964597E2,5.0321964E1,1.7316998E2,6.0011255E2,1.4936948E2,1.1328223E3,2.9495122E3,4.102037E3,8.758711E1,5.9337787E2,6.250717E2,8.442526E2,6.9111285E2,4.084198E2,1.7401133E1,1.0548053E3,5.951408E2,3.8195105E3,3.3741682E3,4.688198E3,4.137203E3,3.0946787E3,2.1200208E2,2.0596667E3,4.4873867E3,4.4788843E2,1.181152E3,1.946563E3,3.5371982E2,2.7443027E2,1.8500222E3,1.1785417E3,1.958501E2,6.009668E3,5.464934E3,2.0893418E3,7.096336E3,5.9362854E2,5.592421E3,4.1734154E1,5.1000767E0,6.2374584E1,4.5772827E2,4.8102374E2,2.1100185E2,1.7531358E2,1.8560365E3,1.0839238E3,9.095968E2,1.5162623E3,6.5384175E3,1.405277E3,4.8833267E3,1.6441132E3,1.0462899E3],"tree_param":{"num_deleted":"0","num_feature":"16","num_nodes":"127","size_leaf_vector":"1"}},{"base_weights":[9.7180266E-5,6.9713674E-2,-1.7940208E-1,4.4614635E-3,2.4311662E-1,-3.7775844E-1,-1.2001749E-1,-1.9765681E-1,6.3616626E-2,3.9315146E-1,7.6779254E-2,-4.7119752E-1,-2.2984731E-1,-2.8559172E-1,-5.5293918E-2,-3.193691E-1,-8.444169E-2,1.6708443E-1,-5.087315E-2,3.3386296E-1,5.8666843E-1,1.9124155E-1,-5.17755E-2,-6.890098E-1,-4.0545207E-1,-5.3542174E-2,-5.112082E-1,-1.7604975E-1,-4.088211E-1,1.7808601E-1,-1.1049333E-1,-8.596426E-2,-4.1473955E-1,-3.463301E-1,-6.009268E-3,1.0589936E-1,3.5898954E-1,8.302294E-2,-1.6182317E-1,4.7928926E-1,2.3421144E-1,8.802283E-1,5.524362E-1,4.5487013E-1,1.15187556E-1,-1.973546E-1,1.0510277E-1,-7.875669E-1,-3.19812E-1,-2.931072E-1,-5.454108E-1,3.7875718E-1,-1.3767618E-1,-7.017428E-1,-1.691586E-1,-9.250371E-2,-4.6585324E-1,-3.314234E-1,-6.629542E-1,6.8964556E-2,4.425024E-1,-5.0692637E-3,-2.2398101E-1,1.7366774E-1,-4.244115E-2,-7.576766E-2,-1.803888E-1,-6.257404E-2,-1.8709663E-1,-2.1948315E-1,2.6110073E-3,5.197073E-2,-2.2182386E-2,1.6581342E-1,8.578369E-2,-3.1975284E-2,4.8341136E-2,-2.1254012E-2,-1.0890579E-1,2.3090893E-1,1.3113588E-1,1.0839842E-1,2.7160054E-2,2.863596E-1,2.1728143E-1,1.2800525E-1,1.9727087E-1,1.4412355E-1,-1.8670508E-1,8.019474E-2,-4.197352E-3,-1.1833538E-2,-1.1594441E-1,5.108804E-2,-1.2182248E-1,-1.9138251E-1,-3.1404996E-1,-4.692771E-2,-4.2802393E-1,-9.435517E-2,1.8062812E-1,-1.13313824E-1,-1.9985539E-1,-1.8475293E-1,1.4764948E-1,-7.955194E-2,2.2644991E-2,-1.6454144E-1,-2.8439844E-1,1.0437552E-1,-1.0011767E-1,-5.1706046E-2,2.6055556E-2,3.6956684E-3,-1.781775E-1,-3.9193366E-2,-1.2120461E-1,-1.6298278E-1,-3.199802E-1,1.0004145E-1,-1.3719925E-2,3.1355578E-1,1.12470865E-1,3.4443364E-2,-3.9576218E-2,-8.988089E-2,-5.188553E-3],"categories":[],"categories_nodes":[],"categories_segments":[],"categories_sizes":[],"default_left":[0,0,0,0,0,0,0,0,0,0,0,0,0,0,0,0,0,0,0,0,0,0,0,0,0,0,0,0,0,0,0,0,0,0,0,0,0,0,0,0,0,0,0,0,0,0,0,0,0,0,0,0,0,0,0,0,0,0,0,0,0,0,0,0,0,0,0,0,0,0,0,0,0,0,0,0,0,0,0,0,0,0,0,0,0,0,0,0,0,0,0,0,0,0,0,0,0,0,0,0,0,0,0,0,0,0,0,0,0,0,0,0,0,0,0,0,0,0,0,0,0,0,0,0,0,0,0],"id":5,"left_children":[1,3,5,7,9,11,13,15,17,19,21,23,25,27,29,31,33,35,37,39,41,43,45,47,49,51,53,55,57,59,61,63,65,67,69,71,73,75,77,79,81,83,85,87,89,91,93,95,97,99,101,103,105,107,109,111,113,115,117,119,121,123,125,-1,-1,-1,-1,-1,-1,-1,-1,-1,-1,-1,-1,-1,-1,-1,-1,-1,-1,-1,-1,-1,-1,-1,-1,-1,-1,-1,-1,-1,-1,-1,-1,-1,-1,-1,-1,-1,-1,-1,-1,-1,-1,-1,-1,-1,-1,-1,-1,-1,-1,-1,-1,-1,-1,-1,-1,-1,-1,-1,-1,-1,-1,-1,-1],"loss_changes":[1.2648213E3,8.2521484E2,3.3313947E2,6.336023E2,4.9761743E2,8.99563E1,2.3328305E2,1.6530438E2,4.856325E2,1.2008899E2,1.3917853E2,5.6897766E1,1.2522044E2,8.251428E1,2.0166708E2,1.2866571E2,1.2770758E2,2.5281E2,2.8913055E2,1.1622168E2,2.4208435E1,1.0026474E2,1.0177555E2,3.3381805E1,4.8102936E1,5.6549095E1,6.3263626E1,7.841951E1,5.63963E1,8.637032E1,1.5146045E2,6.2021824E1,1.2402832E2,5.4608658E1,5.109452E1,1.9776183E2,7.3500854E1,1.306433E2,1.9478629E2,3.9624878E1,8.700128E1,2.2630157E0,2.8850403E1,3.1111862E1,7.6339935E1,6.901162E1,7.155457E1,2.7607758E1,3.5304955E1,3.286496E1,2.7406372E1,2.8877346E1,3.5378082E1,2.3042786E1,2.9834856E1,3.605831E1,4.440219E1,3.213469E1,3.1833923E1,6.435914E1,3.5239853E1,9.983233E1,9.52836E1,0E0,0E0,0E0,0E0,0E0,0E0,0E0,0E0,0E0,0E0,0E0,0E0,0E0,0E0,0E0,0E0,0E0,0E0,0E0,0E0,0E0,0E0,0E0,0E0,0E0,0E0,0E0,0E0,0E0,0E0,0E0,0E0,0E0,0E0,0E0,0E0,0E0,0E0,0E0,0E0,0E0,0E0,0E0,0E0,0E0,0E0,0E0,0E0,0E0,0E0,0E0,0E0,0E0,0E0,0E0,0E0,0E0,0E0,0E0,0E0,0E0,0E0,0E0,0E0],"parents":[2147483647,0,0,1,1,2,2,3,3,4,4,5,5,6,6,7,7,8,8,9,9,10,10,11,11,12,12,13,13,14,14,15,15,16,16,17,17,18,18,19,19,20,20,21,21,22,22,23,23,24,24,25,25,26,26,27,27,28,28,29,29,30,30,31,31,32,32,33,33,34,34,35,35,36,36,37,37,38,38,39,39,40,40,41,41,42,42,43,43,44,44,45,45,46,46,47,47,48,48,49,49,50,50,51,51,52,52,53,53,54,54,55,55,56,56,57,57,58,58,59,59,60,60,61,61,62,62],"right_children":[2,4,6,8,10,12,14,16,18,20,22,24,26,28,30,32,34,36,38,40,42,44,46,48,50,52,54,56,58,60,62,64,66,68,70,72,74,76,78,80,82,84,86,88,90,92,94,96,98,100,102,104,106,108,110,112,114,116,118,120,122,124,126,-1,-1,-1,-1,-1,-1,-1,-1,-1,-1,-1,-1,-1,-1,-1,-1,-1,-1,-1,-1,-1,-1,-1,-1,-1,-1,-1,-1,-1,-1,-1,-1,-1,-1,-1,-1,-1,-1,-1,-1,-1,-1,-1,-1,-1,-1,-1,-1,-1,-1,-1,-1,-1,-1,-1,-1,-1,-1,-1,-1,-1,-1,-1,-1],"split_conditions":[5.1E1,1.90867E5,8.84E0,1E0,7.7779E4,1.68024E5,8.3478E4,3E0,1E0,2.05E1,1E0,1E0,6.21E2,1E0,3.2909E4,2.6E1,8.76E0,2.059E1,4.8E1,4.2E1,2.0773E4,2.1E1,1.562E1,6E1,8.3504E4,1.5E1,6.6E0,6.5E1,7.11E2,3E0,2E0,2.188E4,1E0,7.2E1,9.751E3,8.1E1,4.7768E4,1.017E1,6.66E2,2.134E4,1E0,7.5E1,3E0,1.46873E5,5.37E2,3.3E1,1.03E2,7E1,1.44908E5,8.1971E4,4.4E1,2.3E-1,6.51E0,7.59E2,2.4E1,6.7E-1,1.9E1,1E0,3E0,2.9E1,1.6046E4,1E0,3E0,1.7366774E-1,-4.244115E-2,-7.576766E-2,-1.803888E-1,-6.257404E-2,-1.8709663E-1,-2.1948315E-1,2.6110073E-3,5.197073E-2,-2.2182386E-2,1.6581342E-1,8.578369E-2,-3.1975284E-2,4.8341136E-2,-2.1254012E-2,-1.0890579E-1,2.3090893E-1,1.3113588E-1,1.0839842E-1,2.7160054E-2,2.863596E-1,2.1728143E-1,1.2800525E-1,1.9727087E-1,1.4412355E-1,-1.8670508E-1,8.019474E-2,-4.197352E-3,-1.1833538E-2,-1.1594441E-1,5.108804E-2,-1.2182248E-1,-1.9138251E-1,-3.1404996E-1,-4.692771E-2,-4.2802393E-1,-9.435517E-2,1.8062812E-1,-1.13313824E-1,-1.9985539E-1,-1.8475293E-1,1.4764948E-1,-7.955194E-2,2.2644991E-2,-1.6454144E-1,-2.8439844E-1,1.0437552E-1,-1.0011767E-1,-5.1706046E-2,2.6055556E-2,3.6956684E-3,-1.781775E-1,-3.9193366E-2,-1.2120461E-1,-1.6298278E-1,-3.199802E-1,1.0004145E-1,-1.3719925E-2,3.1355578E-1,1.12470865E-1,3.4443364E-2,-3.9576218E-2,-8.988089E-2,-5.188553E-3],"split_indices":[0,2,6,10,1,2,2,5,13,6,15,10,3,15,1,0,6,6,4,4,1,4,6,7,1,4,6,0,3,10,9,1,13,4,2,4,1,6,3,1,13,4,5,1,3,0,4,4,2,1,4,8,6,3,7,8,4,9,9,4,1,12,10,0,0,0,0,0,0,0,0,0,0,0,0,0,0,0,0,0,0,0,0,0,0,0,0,0,0,0,0,0,0,0,0,0,0,0,0,0,0,0,0,0,0,0,0,0,0,0,0,0,0,0,0,0,0,0,0,0,0,0,0,0,0,0,0],"split_type":[0,0,0,0,0,0,0,0,0,0,0,0,0,0,0,0,0,0,0,0,0,0,0,0,0,0,0,0,0,0,0,0,0,0,0,0,0,0,0,0,0,0,0,0,0,0,0,0,0,0,0,0,0,0,0,0,0,0,0,0,0,0,0,0,0,0,0,0,0,0,0,0,0,0,0,0,0,0,0,0,0,0,0,0,0,0,0,0,0,0,0,0,0,0,0,0,0,0,0,0,0,0,0,0,0,0,0,0,0,0,0,0,0,0,0,0,0,0,0,0,0,0,0,0,0,0,0],"sum_hessian":[1.0121522E5,7.2930625E4,2.8284596E4,5.299095E4,1.9939674E4,6.5156533E3,2.1768943E4,1.19972E4,4.0993746E4,1.0482861E4,9.4568125E3,3.9917698E3,2.5238838E3,6.1170493E3,1.5651894E4,5.7807563E3,6.216444E3,2.1533146E4,1.9460602E4,8.0264834E3,2.4563782E3,5.0023467E3,4.454466E3,9.2332996E2,3.0684397E3,1.5523483E3,9.7153546E2,3.2396582E3,2.8773914E3,2.993466E3,1.2658428E4,1.6774209E3,4.1033354E3,1.4318926E3,4.7845513E3,1.6328641E4,5.204506E3,8.818526E3,1.0642074E4,3.2621138E3,4.7643696E3,2.5394563E2,2.2024326E3,1.1188964E3,3.8834504E3,2.310304E3,2.144162E3,7.278877E2,1.9544225E2,1.703852E3,1.3645878E3,2.5232812E2,1.3000201E3,6.232885E2,3.4824698E2,2.5157297E3,7.239284E2,2.2074146E3,6.699768E2,2.1198787E3,8.7358746E2,6.5628916E3,6.095536E3,1.28524E2,1.5488969E3,2.1963325E3,1.9070029E3,9.578647E2,4.7402792E2,9.411741E1,4.690434E3,1.1880391E4,4.44825E3,1.4232633E3,3.7812424E3,2.5729119E3,6.245615E3,7.329284E3,3.3127896E3,4.114382E2,2.8506755E3,2.5270713E3,2.2372986E3,1.6853078E2,8.5414856E1,1.0051784E3,1.1972542E3,1.0935221E3,2.5374197E1,1.7828248E3,2.1006257E3,1.2597211E3,1.0505829E3,1.9022361E3,2.41926E2,4.6372684E2,2.6416086E2,1.7129935E2,2.41429E1,1.6646874E3,3.9164677E1,5.7303656E2,7.915512E2,2.5373045E1,2.2695508E2,8.13311E2,4.8670917E2,3.8616193E2,2.3712656E2,8.380709E1,2.6443988E2,1.740771E3,7.7495874E2,1.5312408E2,5.708043E2,5.8690875E2,1.6205057E3,5.185703E2,1.5140645E2,6.406207E2,1.4792579E3,8.664479E1,7.869427E2,3.3742063E3,3.1886853E3,4.462392E3,1.6331438E3],"tree_param":{"num_deleted":"0","num_feature":"16","num_nodes":"127","size_leaf_vector":"1"}},{"base_weights":[-1.515583E-6,8.74096E-2,-9.620717E-2,1.3063933E-1,-1.2829994E-1,-2.501602E-1,-3.6458857E-2,2.1351908E-1,2.325555E-2,-4.0203636E-3,-2.3519221E-1,1.5129704E-2,-2.913552E-1,2.3136564E-1,-6.874521E-2,2.9493603E-1,8.388299E-2,1.1245127E-1,-1.1131456E-1,4.0354174E-1,-5.350749E-2,-1.259904E-1,-3.525877E-1,-8.342156E-2,2.6556933E-1,-3.8334183E-2,-3.4191215E-1,1.281586E-1,4.2317635E-1,2.4430454E-2,-1.6882846E-1,2.3594241E-1,4.535256E-1,-1.4458327E-1,1.5103701E-1,4.3144442E-2,3.1340855E-1,-6.2707037E-1,-8.4475435E-2,-5.4003215E-1,4.4239116E-1,2.1628065E-2,-3.098608E-1,-7.4713796E-1,-6.8461895E-2,-1.2643828E0,-3.2622266E-1,-5.6904244E-1,-2.046443E-2,-1.3694616E-1,4.7433504E-1,-1.5092735E-1,2.5225237E-1,-7.8718776E-1,-3.1419867E-1,2.8837922E-1,-5.0919995E-2,1.3884293E-1,4.9922884E-1,6.537107E-2,-2.1087417E-1,-8.44061E-2,-3.0485806E-1,1.00341275E-1,3.745441E-2,2.259565E-2,1.4678168E-1,-1.8638407E-1,-2.3210816E-2,6.333707E-2,-3.927366E-2,8.162778E-2,-5.1445635E-3,1.4506373E-1,6.994325E-2,-1.1344809E-1,-2.68026E-1,2.1204747E-2,-5.3616524E-2,8.789002E-2,2.0676035E-1,1.0787806E-1,-9.312534E-3,-1.6310224E-1,-3.3089552E-2,-1.2614731E-1,-3.3918455E-1,-2.0342492E-1,-9.079422E-3,-7.662299E-2,-4.7094074E-1,-8.119529E-2,-1.8997388E-1,-4.9213824E-1,-1.0577566E-1,6.787908E-2,-5.216667E-2,8.174648E-2,-1.6551098E-1,2.0367284E-1,4.2400584E-3,-3.280205E-2,-2.1748258E-1,3.0352047E-1,5.514275E-2,-2.0973928E-1,-3.805698E-1,-8.0144495E-2,-1.476547E-1,1.8542042E-1,5.136108E-2,4.696672E-2,-8.787013E-2,-2.5825116E-1,8.345487E-2,2.4476092E-1,1.2886164E-1,3.4826104E-2,-4.3205816E-2,-3.972425E-2,-1.3802136E-1,-4.9825687E-2,3.191728E-2,-1.393143E-1,-4.8239604E-2],"categories":[],"categories_nodes":[],"categories_segments":[],"categories_sizes":[],"default_left":[0,0,0,0,0,0,0,0,0,0,0,0,0,0,0,0,0,0,0,0,0,0,0,0,0,0,0,0,0,0,0,0,0,0,0,0,0,0,0,0,0,0,0,0,0,0,0,0,0,0,0,0,0,0,0,0,0,0,0,0,0,0,0,0,0,0,0,0,0,0,0,0,0,0,0,0,0,0,0,0,0,0,0,0,0,0,0,0,0,0,0,0,0,0,0,0,0,0,0,0,0,0,0,0,0,0,0,0,0,0,0,0,0,0,0,0,0,0,0,0,0,0,0,0,0],"id":6,"left_children":[1,3,5,7,9,11,13,15,17,19,21,23,25,27,29,31,33,35,37,39,41,43,45,47,49,51,53,55,57,59,61,63,65,67,69,71,73,75,77,-1,79,81,83,85,87,89,91,93,95,97,99,101,103,105,107,109,111,113,115,117,119,121,123,-1,-1,-1,-1,-1,-1,-1,-1,-1,-1,-1,-1,-1,-1,-1,-1,-1,-1,-1,-1,-1,-1,-1,-1,-1,-1,-1,-1,-1,-1,-1,-1,-1,-1,-1,-1,-1,-1,-1,-1,-1,-1,-1,-1,-1,-1,-1,-1,-1,-1,-1,-1,-1,-1,-1,-1,-1,-1,-1,-1,-1,-1],"loss_changes":[8.382272E2,4.8702304E2,4.364692E2,3.872047E2,1.1583374E2,1.4499066E2,2.9562238E2,2.5914282E2,2.2750668E2,8.136072E1,6.0050385E1,4.405673E1,1.4688391E2,7.275575E1,2.8450793E2,1.4099805E2,1.45374E2,1.5874286E2,1.04532005E2,3.8188965E1,6.929108E1,8.6786575E1,5.3881287E1,3.915513E1,4.2421875E1,6.264597E1,1.1785974E2,6.866716E1,2.7744766E1,1.5222789E2,1.6889456E2,1.203089E2,5.523346E1,6.892343E1,1.240764E2,1.1701662E2,3.980237E1,2.4428543E1,1.0504747E2,0E0,1.5656708E1,4.9544907E1,3.7986107E1,2.5314888E1,5.179605E1,1.905114E1,3.7303146E1,3.3509674E1,4.3007298E1,2.951548E1,3.1259598E1,3.285879E1,2.761163E1,2.2855804E1,7.533539E1,4.868612E1,5.6813877E1,3.8242363E1,2.203453E1,1.4294945E2,4.5728462E1,1.4148666E2,1.2936578E2,0E0,0E0,0E0,0E0,0E0,0E0,0E0,0E0,0E0,0E0,0E0,0E0,0E0,0E0,0E0,0E0,0E0,0E0,0E0,0E0,0E0,0E0,0E0,0E0,0E0,0E0,0E0,0E0,0E0,0E0,0E0,0E0,0E0,0E0,0E0,0E0,0E0,0E0,0E0,0E0,0E0,0E0,0E0,0E0,0E0,0E0,0E0,0E0,0E0,0E0,0E0,0E0,0E0,0E0,0E0,0E0,0E0,0E0,0E0,0E0,0E0,0E0],"parents":[2147483647,0,0,1,1,2,2,3,3,4,4,5,5,6,6,7,7,8,8,9,9,10,10,11,11,12,12,13,13,14,14,15,15,16,16,17,17,18,18,19,19,20,20,21,21,22,22,23,23,24,24,25,25,26,26,27,27,28,28,29,29,30,30,31,31,32,32,33,33,34,34,35,35,36,36,37,37,38,38,40,40,41,41,42,42,43,43,44,44,45,45,46,46,47,47,48,48,49,49,50,50,51,51,52,52,53,53,54,54,55,55,56,56,57,57,58,58,59,59,60,60,61,61,62,62],"right_children":[2,4,6,8,10,12,14,16,18,20,22,24,26,28,30,32,34,36,38,40,42,44,46,48,50,52,54,56,58,60,62,64,66,68,70,72,74,76,78,-1,80,82,84,86,88,90,92,94,96,98,100,102,104,106,108,110,112,114,116,118,120,122,124,-1,-1,-1,-1,-1,-1,-1,-1,-1,-1,-1,-1,-1,-1,-1,-1,-1,-1,-1,-1,-1,-1,-1,-1,-1,-1,-1,-1,-1,-1,-1,-1,-1,-1,-1,-1,-1,-1,-1,-1,-1,-1,-1,-1,-1,-1,-1,-1,-1,-1,-1,-1,-1,-1,-1,-1,-1,-1,-1,-1,-1,-1],"split_conditions":[1E0,9.6E1,9.9E0,5.98E2,3.7E1,2.3E1,2.6017E4,4.5E1,9.0325E4,2.5474E4,1E0,3E0,3.0794E4,1.76573E5,1E0,3E0,1E0,1.96781E5,3.62E0,1.451E4,3E0,1.9E-1,3.8E1,4.0262E4,4.2E-1,4E0,2.2203E4,5.6E1,1E0,5.9E1,4.5E1,2E0,4.79E0,6.42E0,1.22005E5,2.6E1,2.6E1,1E0,3.3E1,-5.4003215E-1,6.6E-1,2E1,2E0,1E0,3.98E0,3.6648E4,1.2614E5,3.53E0,3.7E1,5.48E2,7.2E-1,1.09E2,3.28E2,1.9311E4,9E1,2.8E1,2E0,1.239E1,1.9E1,9.2E1,7.05E2,1.8417E5,3E0,1.00341275E-1,3.745441E-2,2.259565E-2,1.4678168E-1,-1.8638407E-1,-2.3210816E-2,6.333707E-2,-3.927366E-2,8.162778E-2,-5.1445635E-3,1.4506373E-1,6.994325E-2,-1.1344809E-1,-2.68026E-1,2.1204747E-2,-5.3616524E-2,8.789002E-2,2.0676035E-1,1.0787806E-1,-9.312534E-3,-1.6310224E-1,-3.3089552E-2,-1.2614731E-1,-3.3918455E-1,-2.0342492E-1,-9.079422E-3,-7.662299E-2,-4.7094074E-1,-8.119529E-2,-1.8997388E-1,-4.9213824E-1,-1.0577566E-1,6.787908E-2,-5.216667E-2,8.174648E-2,-1.6551098E-1,2.0367284E-1,4.2400584E-3,-3.280205E-2,-2.1748258E-1,3.0352047E-1,5.514275E-2,-2.0973928E-1,-3.805698E-1,-8.0144495E-2,-1.476547E-1,1.8542042E-1,5.136108E-2,4.696672E-2,-8.787013E-2,-2.5825116E-1,8.345487E-2,2.4476092E-1,1.2886164E-1,3.4826104E-2,-4.3205816E-2,-3.972425E-2,-1.3802136E-1,-4.9825687E-2,3.191728E-2,-1.393143E-1,-4.8239604E-2],"split_indices":[15,4,6,3,0,0,1,0,1,1,13,10,1,2,12,10,10,2,6,2,9,8,0,2,8,5,2,4,10,0,0,9,6,6,1,0,4,12,0,0,8,0,10,12,6,1,1,6,4,3,8,4,3,2,4,0,9,6,4,4,3,2,5,0,0,0,0,0,0,0,0,0,0,0,0,0,0,0,0,0,0,0,0,0,0,0,0,0,0,0,0,0,0,0,0,0,0,0,0,0,0,0,0,0,0,0,0,0,0,0,0,0,0,0,0,0,0,0,0,0,0,0,0,0,0],"split_type":[0,0,0,0,0,0,0,0,0,0,0,0,0,0,0,0,0,0,0,0,0,0,0,0,0,0,0,0,0,0,0,0,0,0,0,0,0,0,0,0,0,0,0,0,0,0,0,0,0,0,0,0,0,0,0,0,0,0,0,0,0,0,0,0,0,0,0,0,0,0,0,0,0,0,0,0,0,0,0,0,0,0,0,0,0,0,0,0,0,0,0,0,0,0,0,0,0,0,0,0,0,0,0,0,0,0,0,0,0,0,0,0,0,0,0,0,0,0,0,0,0,0,0,0,0],"sum_hessian":[9.967489E4,5.2224516E4,4.7450375E4,4.3505996E4,8.718519E3,1.3265661E4,3.418471E4,2.4554008E4,1.8951986E4,4.0318628E3,4.6866553E3,1.7831384E3,1.1482523E4,3.6769768E3,3.0507734E4,1.5081141E4,9.472868E3,1.1397599E4,7.554388E3,4.3577634E2,3.5960864E3,2.4291355E3,2.2575198E3,1.280078E3,5.0306046E2,1.9125579E3,9.569965E3,2.3917324E3,1.2852444E3,1.5799473E4,1.4708263E4,1.0993984E4,4.0871558E3,2.1516243E3,7.321244E3,8.475689E3,2.9219094E3,3.7256693E2,7.1818213E3,6.764059E0,4.290123E2,2.7817024E3,8.14384E2,2.0489146E2,2.2242441E3,6.2123283E1,2.1953965E3,1.459846E2,1.1340934E3,1.7192348E2,3.31137E2,1.3787977E3,5.337602E2,5.591198E2,9.010846E3,1.2620093E3,1.129723E3,2.7182233E2,1.01342206E3,1.3458545E4,2.3409277E3,9.076715E3,5.631548E3,5.8254453E3,5.168539E3,3.5321188E2,3.7339438E3,2.6486874E2,1.8867555E3,6.0353037E3,1.2859402E3,1.7660448E3,6.7096445E3,9.349864E2,1.9869231E3,1.9383926E2,1.7872768E2,2.7140027E3,4.467819E3,2.685892E2,1.6042307E2,3.742747E2,2.4074277E3,3.7421634E2,4.4016763E2,1.1177648E2,9.311499E1,1.3015984E2,2.0940842E3,1.4861998E1,4.7261284E1,1.8605212E3,3.348753E2,2.3430357E1,1.22554245E2,4.346464E2,6.9944696E2,8.668951E1,8.523397E1,2.2890576E2,1.02231224E2,1.2867626E3,9.20351E1,4.2985703E1,4.907745E2,4.747312E2,8.438859E1,7.128826E3,1.8820193E3,3.2979984E2,9.322095E2,6.0841595E2,5.2130707E2,3.2619457E1,2.3920285E2,1.8087935E2,8.325427E2,1.0834736E4,2.6238088E3,1.7815392E3,5.593886E2,6.355905E3,2.72081E3,2.671292E3,2.9602559E3],"tree_param":{"num_deleted":"0","num_feature":"16","num_nodes":"125","size_leaf_vector":"1"}},{"base_weights":[-1.5243025E-4,-1.471776E-1,4.3445557E-2,-1.7360951E-1,1.7894013E-1,1.2122174E-1,-4.1103974E-2,-4.560571E-2,-2.2673333E-1,-1.4087132E-1,2.7057865E-1,2.6035088E-1,7.3929295E-2,-1.3506775E-1,4.7144163E-2,1.125481E-1,-1.3457218E-1,-1.4402361E-1,-3.1735355E-1,3.989941E-1,-3.1745058E-1,3.139479E-1,-4.37309E-1,4.5254105E-1,2.1583113E-1,1.5466243E-1,-1.2358346E-2,4.1033275E-2,-1.9557014E-1,-8.3791316E-2,1.0938839E-1,-8.3470285E-2,2.3417263E-1,-8.892801E-2,-4.672159E-1,-5.229183E-2,-2.4438392E-1,-5.5055696E-1,-2.7346638E-1,6.66266E-1,-3.0125192E-1,1.04454406E-1,-5.5514824E-1,4.8479903E-1,1.5439257E-1,-8.6854416E-1,5.979528E-1,5.5339324E-1,2.6400375E-1,1.9064684E-1,5.9499705E-1,1.11757405E-1,3.4466407E-1,-8.544691E-2,1.3518697E-1,1.2809706E-1,-1.4962773E-1,-1.20620124E-1,-3.750932E-1,-1.2927777E-1,1.778468E-1,2.4103257E-1,3.629925E-2,-5.2383067E-3,-2.2280651E-1,1.6014992E-1,4.9091917E-2,1.0034481E-1,-4.0425934E-2,-2.6385072E-1,-3.8654577E-2,2.433919E-2,-6.7763634E-2,-1.0053367E-1,-1.096166E-3,-2.0822993E-1,-4.8687648E-2,-5.6245033E-2,-1.2134682E-1,-6.699691E-2,2.6028708E-1,1.4230764E-1,-3.4427366E-1,1.799924E-1,-1.2558638E-1,-4.8751E-2,-2.9834637E-1,1.994894E-1,5.8570158E-2,6.843922E-2,-1.2524584E-1,-4.30912E-1,4.2093143E-2,-1.3486849E-1,4.996747E-1,1.1725436E-1,1.8953511E-1,-3.195702E-2,1.1572597E-1,1.7719063E-1,5.0083023E-2,-4.8399985E-1,1.8313348E-1,-6.642287E-3,5.3896654E-2,1.1100517E-1,-1.1281688E-1,-4.9081672E-2,1.6896954E-2,7.636846E-2,-1.8763471E-2,4.3989632E-2,-3.6681798E-1,-1.3783772E-1,-2.042596E-2,-2.318906E-2,-1.117887E-1,-6.792227E-2,-1.6111375E-1,3.7981074E-2,-5.4279696E-2,8.579687E-2,-6.762794E-2,1.0589858E-1,2.2773808E-2,6.922691E-2,-4.80899E-3],"categories":[],"categories_nodes":[],"categories_segments":[],"categories_sizes":[],"default_left":[0,0,0,0,0,0,0,0,0,0,0,0,0,0,0,0,0,0,0,0,0,0,0,0,0,0,0,0,0,0,0,0,0,0,0,0,0,0,0,0,0,0,0,0,0,0,0,0,0,0,0,0,0,0,0,0,0,0,0,0,0,0,0,0,0,0,0,0,0,0,0,0,0,0,0,0,0,0,0,0,0,0,0,0,0,0,0,0,0,0,0,0,0,0,0,0,0,0,0,0,0,0,0,0,0,0,0,0,0,0,0,0,0,0,0,0,0,0,0,0,0,0,0,0,0,0,0],"id":7,"left_children":[1,3,5,7,9,11,13,15,17,19,21,23,25,27,29,31,33,35,37,39,41,43,45,47,49,51,53,55,57,59,61,63,65,67,69,71,73,75,77,79,81,83,85,87,89,91,93,95,97,99,101,103,105,107,109,111,113,115,117,119,121,123,125,-1,-1,-1,-1,-1,-1,-1,-1,-1,-1,-1,-1,-1,-1,-1,-1,-1,-1,-1,-1,-1,-1,-1,-1,-1,-1,-1,-1,-1,-1,-1,-1,-1,-1,-1,-1,-1,-1,-1,-1,-1,-1,-1,-1,-1,-1,-1,-1,-1,-1,-1,-1,-1,-1,-1,-1,-1,-1,-1,-1,-1,-1,-1,-1],"loss_changes":[6.309222E2,1.9408005E2,4.9922446E2,1.4159686E2,4.951648E1,2.601585E2,3.016317E2,8.597045E1,1.10256836E2,3.603443E1,4.043495E1,8.5729126E1,2.0559244E2,1.8771109E2,1.5289212E2,5.246528E1,5.9326546E1,7.083734E1,7.171289E1,1.7658619E1,2.8578468E1,3.365721E1,3.4535076E1,3.570877E1,7.767496E1,1.24254974E2,1.5385786E2,7.481333E1,1.7638602E2,7.1961945E1,1.2233104E2,3.6671993E1,2.8610878E1,6.678206E1,6.567099E1,9.317087E1,8.026079E1,6.181363E1,6.652109E1,1.2342615E1,1.7911102E1,2.7032835E1,3.1245491E1,3.1019958E1,2.7139439E1,3.1247887E1,2.6468134E1,1.5395142E1,2.9772575E1,7.2339935E1,1.8277283E1,1.1309889E2,5.145294E1,1.0572871E2,1.115772E2,7.764032E1,3.566601E1,1.0098207E2,9.286438E1,6.80941E1,3.9126015E1,8.388699E1,8.321018E1,0E0,0E0,0E0,0E0,0E0,0E0,0E0,0E0,0E0,0E0,0E0,0E0,0E0,0E0,0E0,0E0,0E0,0E0,0E0,0E0,0E0,0E0,0E0,0E0,0E0,0E0,0E0,0E0,0E0,0E0,0E0,0E0,0E0,0E0,0E0,0E0,0E0,0E0,0E0,0E0,0E0,0E0,0E0,0E0,0E0,0E0,0E0,0E0,0E0,0E0,0E0,0E0,0E0,0E0,0E0,0E0,0E0,0E0,0E0,0E0,0E0,0E0,0E0,0E0],"parents":[2147483647,0,0,1,1,2,2,3,3,4,4,5,5,6,6,7,7,8,8,9,9,10,10,11,11,12,12,13,13,14,14,15,15,16,16,17,17,18,18,19,19,20,20,21,21,22,22,23,23,24,24,25,25,26,26,27,27,28,28,29,29,30,30,31,31,32,32,33,33,34,34,35,35,36,36,37,37,38,38,39,39,40,40,41,41,42,42,43,43,44,44,45,45,46,46,47,47,48,48,49,49,50,50,51,51,52,52,53,53,54,54,55,55,56,56,57,57,58,58,59,59,60,60,61,61,62,62],"right_children":[2,4,6,8,10,12,14,16,18,20,22,24,26,28,30,32,34,36,38,40,42,44,46,48,50,52,54,56,58,60,62,64,66,68,70,72,74,76,78,80,82,84,86,88,90,92,94,96,98,100,102,104,106,108,110,112,114,116,118,120,122,124,126,-1,-1,-1,-1,-1,-1,-1,-1,-1,-1,-1,-1,-1,-1,-1,-1,-1,-1,-1,-1,-1,-1,-1,-1,-1,-1,-1,-1,-1,-1,-1,-1,-1,-1,-1,-1,-1,-1,-1,-1,-1,-1,-1,-1,-1,-1,-1,-1,-1,-1,-1,-1,-1,-1,-1,-1,-1,-1,-1,-1,-1,-1,-1,-1],"split_conditions":[1E0,2.374E1,1E0,3E1,7.1027E4,2.8E1,3E0,1E0,2E0,2.2E1,6.5E1,1.9E1,1E0,2.6E1,9.5011E4,1.231E1,6.1E1,1E0,5.0802E4,6.1E-1,3E1,5E1,2.10987E5,9.8789E4,2.38562E5,2.177E1,1.78495E5,4.9E1,6.74E2,2.24E1,5.4633E4,1.34183E5,3.81E2,2.4948E4,2E0,5.91E2,4E0,1.942E1,9.1388E4,4.25E2,1E0,2E0,2E0,6.13E2,7.9E-1,6.85E2,7E-1,9.0267E4,8.57E0,2.0773E4,2.45E0,9.8804E4,1.14E2,3E0,8.9814E4,8.38E2,8.66E0,5.9E1,2E0,1.6E1,3E0,4.5E1,2.6E1,-5.2383067E-3,-2.2280651E-1,1.6014992E-1,4.9091917E-2,1.0034481E-1,-4.0425934E-2,-2.6385072E-1,-3.8654577E-2,2.433919E-2,-6.7763634E-2,-1.0053367E-1,-1.096166E-3,-2.0822993E-1,-4.8687648E-2,-5.6245033E-2,-1.2134682E-1,-6.699691E-2,2.6028708E-1,1.4230764E-1,-3.4427366E-1,1.799924E-1,-1.2558638E-1,-4.8751E-2,-2.9834637E-1,1.994894E-1,5.8570158E-2,6.843922E-2,-1.2524584E-1,-4.30912E-1,4.2093143E-2,-1.3486849E-1,4.996747E-1,1.1725436E-1,1.8953511E-1,-3.195702E-2,1.1572597E-1,1.7719063E-1,5.0083023E-2,-4.8399985E-1,1.8313348E-1,-6.642287E-3,5.3896654E-2,1.1100517E-1,-1.1281688E-1,-4.9081672E-2,1.6896954E-2,7.636846E-2,-1.8763471E-2,4.3989632E-2,-3.6681798E-1,-1.3783772E-1,-2.042596E-2,-2.318906E-2,-1.117887E-1,-6.792227E-2,-1.6111375E-1,3.7981074E-2,-5.4279696E-2,8.579687E-2,-6.762794E-2,1.0589858E-1,2.2773808E-2,6.922691E-2,-4.80899E-3],"split_indices":[10,6,13,4,2,0,5,11,9,4,0,4,12,4,2,6,0,13,2,8,0,4,2,1,2,6,2,0,3,6,1,1,3,1,11,3,5,6,1,3,11,14,9,3,8,3,8,2,6,1,6,2,4,10,1,3,6,0,9,4,9,0,0,0,0,0,0,0,0,0,0,0,0,0,0,0,0,0,0,0,0,0,0,0,0,0,0,0,0,0,0,0,0,0,0,0,0,0,0,0,0,0,0,0,0,0,0,0,0,0,0,0,0,0,0,0,0,0,0,0,0,0,0,0,0,0,0],"split_type":[0,0,0,0,0,0,0,0,0,0,0,0,0,0,0,0,0,0,0,0,0,0,0,0,0,0,0,0,0,0,0,0,0,0,0,0,0,0,0,0,0,0,0,0,0,0,0,0,0,0,0,0,0,0,0,0,0,0,0,0,0,0,0,0,0,0,0,0,0,0,0,0,0,0,0,0,0,0,0,0,0,0,0,0,0,0,0,0,0,0,0,0,0,0,0,0,0,0,0,0,0,0,0,0,0,0,0,0,0,0,0,0,0,0,0,0,0,0,0,0,0,0,0,0,0,0,0],"sum_hessian":[9.8425766E4,2.2510705E4,7.591506E4,2.082343E4,1.6872753E3,3.9541152E4,3.6373906E4,6.1079517E3,1.4715478E4,3.7567184E2,1.3116034E3,1.0029874E4,2.9511281E4,1.7616207E4,1.8757697E4,2.1988455E3,3.9091062E3,7.694889E3,7.020589E3,9.22799E1,2.8339194E2,1.2364104E3,7.519307E1,1.8846669E3,8.1452065E3,1.524595E4,1.426533E4,4.504762E3,1.3111444E4,6.043786E3,1.2713912E4,8.420515E2,1.356794E3,3.4385483E3,4.7055783E2,4.0210613E3,3.673828E3,1.1101322E3,5.9104565E3,6.6823166E1,2.5456736E1,1.0232652E2,1.8106541E2,5.960858E2,6.403245E2,5.319563E1,2.1997438E1,1.2265999E3,6.5806696E2,7.639305E3,5.0590158E2,1.2438705E4,2.8072454E3,9.539989E3,4.7253413E3,3.0927922E3,1.4119701E3,9.250907E3,3.8605374E3,5.1491064E3,8.9467944E2,4.5380054E3,8.1759067E3,7.663421E2,7.570939E1,2.5725836E2,1.0995355E3,3.3519003E2,3.1033584E3,2.1138942E2,2.5916843E2,2.2738594E3,1.747202E3,2.667926E3,1.0059018E3,8.09916E2,3.0021622E2,3.5700603E3,2.3403965E3,1.2313508E1,5.450966E1,1.3512659E1,1.19440775E1,5.247185E1,4.985467E1,9.63372E1,8.4728226E1,3.6665747E2,2.2942836E2,5.6772327E2,7.2601265E1,3.376653E1,1.9429098E1,1.1395529E1,1.0601911E1,4.0103165E2,8.2556824E2,1.6278351E2,4.9528345E2,4.2604276E2,7.213262E3,2.7957878E0,5.031058E2,4.185456E3,8.253249E3,2.712319E3,9.4926125E1,6.149552E3,3.3904375E3,2.9463098E3,1.7790314E3,3.051809E3,4.0983295E1,2.9321378E2,1.1187563E3,7.8949756E3,1.3559315E3,2.0139587E3,1.8465786E3,8.6461383E2,4.2844927E3,7.057221E2,1.8895734E2,2.7036238E3,1.8343815E3,1.7329175E3,6.4429893E3],"tree_param":{"num_deleted":"0","num_feature":"16","num_nodes":"127","size_leaf_vector":"1"}},{"base_weights":[-4.7900437E-5,6.848772E-2,-7.4249804E-2,1.9752242E-2,1.7874558E-1,-1.5113863E-1,-2.976607E-3,-5.6055516E-2,1.0183177E-1,2.5313175E-1,5.840561E-2,-2.0795436E-1,-2.5822996E-4,6.3347325E-2,-1.05060436E-1,8.126521E-2,-1.1764219E-1,3.1999704E-1,7.022075E-2,1.9381577E-1,4.0703747E-1,-4.269289E-2,1.5789253E-1,-3.9654142E-1,-1.7034374E-1,-9.429054E-2,1.507205E-1,-1.7437051E-1,9.635444E-2,-2.2303706E-2,-1.9550419E-1,1.8279953E-1,-3.0233437E-2,7.93094E-2,-1.6511999E-1,3.4704685E-1,-2.2470817E-1,-7.496977E-2,1.16976954E-1,2.4728763E-1,3.59374E-2,1.4827135E-1,4.6180508E-1,-4.1674092E-1,-1.30563425E-2,2.1531032E-1,-4.9981162E-2,-2.3184466E-1,-5.326623E-1,-2.826735E-1,-1.05507E-1,-1.0245317E-2,-3.0097815E-1,-2.8906924E-1,1.863275E-1,-3.1345185E-2,-3.6876658E-1,2.72733E-1,5.683484E-2,2.2274972E-1,-7.546202E-2,-1.5448701E-1,-5.2117074E-1,1.683158E-1,4.2830873E-2,-4.066681E-3,-5.046586E-1,-7.533209E-2,3.6589444E-2,-3.8739346E-2,-1.2143005E-1,1.5001197E-1,7.9729676E-2,-2.8199023E-1,1.4524646E-1,3.6427163E-2,-4.1767266E-2,8.465591E-3,5.9791498E-2,8.841463E-2,5.2805496E-3,1.3484927E-1,-4.2488063E-3,7.7662855E-2,-2.2239667E-1,9.4755925E-2,1.5764777E-1,-1.5850726E-1,3.3722115E-1,2.8355345E-2,-4.2540967E-2,1.3230428E-2,8.838534E-2,-1.8791837E-1,3.0716737E-3,3.3478376E-2,-9.919749E-2,-2.5535458E-1,-1.3441303E-1,-1.0768012E-1,-5.5382688E-2,-2.0319013E-2,-1.1721773E-1,4.5381267E-2,-3.941667E-2,1.2464987E-1,-1.0411892E-1,4.0212102E-2,-2.1259488E-1,7.539403E-2,-1.6014691E-2,-3.3058014E-2,1.2202667E-1,-8.045972E-2,-2.9588762E-1,2.20267E-2,1.042789E-1,3.9436895E-2,-1.8609725E-2,1.4638816E-2,1.1540835E-1,-8.077356E-2,4.746707E-3,-6.643762E-2,1.837721E-2,-3.267475E-1,-1.3342871E-1],"categories":[],"categories_nodes":[],"categories_segments":[],"categories_sizes":[],"default_left":[0,0,0,0,0,0,0,0,0,0,0,0,0,0,0,0,0,0,0,0,0,0,0,0,0,0,0,0,0,0,0,0,0,0,0,0,0,0,0,0,0,0,0,0,0,0,0,0,0,0,0,0,0,0,0,0,0,0,0,0,0,0,0,0,0,0,0,0,0,0,0,0,0,0,0,0,0,0,0,0,0,0,0,0,0,0,0,0,0,0,0,0,0,0,0,0,0,0,0,0,0,0,0,0,0,0,0,0,0,0,0,0,0,0,0,0,0,0,0,0,0,0,0,0,0,0,0],"id":8,"left_children":[1,3,5,7,9,11,13,15,17,19,21,23,25,27,29,31,33,35,37,39,41,43,45,47,49,51,53,55,57,59,61,63,65,67,69,71,73,75,77,79,81,83,85,87,89,91,93,95,97,99,101,103,105,107,109,111,113,115,117,119,121,123,125,-1,-1,-1,-1,-1,-1,-1,-1,-1,-1,-1,-1,-1,-1,-1,-1,-1,-1,-1,-1,-1,-1,-1,-1,-1,-1,-1,-1,-1,-1,-1,-1,-1,-1,-1,-1,-1,-1,-1,-1,-1,-1,-1,-1,-1,-1,-1,-1,-1,-1,-1,-1,-1,-1,-1,-1,-1,-1,-1,-1,-1,-1,-1,-1],"loss_changes":[4.958136E2,2.7234106E2,2.5653937E2,2.1870982E2,1.3905362E2,1.9304364E2,1.6449573E2,1.5454718E2,1.16365524E2,8.7565735E1,5.971033E1,1.1596533E2,8.748394E1,1.15572754E2,7.161276E1,6.406378E1,1.1798015E2,3.1543869E1,1.0008562E2,5.8509155E1,3.7769043E1,3.264037E1,3.5722588E1,6.0840088E1,9.931705E1,6.5958755E1,3.708842E1,4.9921574E1,9.012845E1,6.511886E1,6.0987762E1,4.4763863E1,7.4302475E1,3.4577065E1,8.762158E1,2.5172424E1,5.198929E1,4.5339943E1,8.148088E1,5.6399414E1,3.636698E1,4.622457E1,2.031195E1,3.7770634E1,3.7819916E1,3.1822937E1,2.2512941E1,4.1855873E1,3.9725677E1,3.726184E1,9.317794E1,5.28606E1,3.6387856E1,3.1611195E1,3.4104576E1,3.582376E1,4.70058E1,3.529222E1,9.3732635E1,2.5084644E1,7.266339E1,5.8700516E1,2.169107E1,0E0,0E0,0E0,0E0,0E0,0E0,0E0,0E0,0E0,0E0,0E0,0E0,0E0,0E0,0E0,0E0,0E0,0E0,0E0,0E0,0E0,0E0,0E0,0E0,0E0,0E0,0E0,0E0,0E0,0E0,0E0,0E0,0E0,0E0,0E0,0E0,0E0,0E0,0E0,0E0,0E0,0E0,0E0,0E0,0E0,0E0,0E0,0E0,0E0,0E0,0E0,0E0,0E0,0E0,0E0,0E0,0E0,0E0,0E0,0E0,0E0,0E0,0E0,0E0],"parents":[2147483647,0,0,1,1,2,2,3,3,4,4,5,5,6,6,7,7,8,8,9,9,10,10,11,11,12,12,13,13,14,14,15,15,16,16,17,17,18,18,19,19,20,20,21,21,22,22,23,23,24,24,25,25,26,26,27,27,28,28,29,29,30,30,31,31,32,32,33,33,34,34,35,35,36,36,37,37,38,38,39,39,40,40,41,41,42,42,43,43,44,44,45,45,46,46,47,47,48,48,49,49,50,50,51,51,52,52,53,53,54,54,55,55,56,56,57,57,58,58,59,59,60,60,61,61,62,62],"right_children":[2,4,6,8,10,12,14,16,18,20,22,24,26,28,30,32,34,36,38,40,42,44,46,48,50,52,54,56,58,60,62,64,66,68,70,72,74,76,78,80,82,84,86,88,90,92,94,96,98,100,102,104,106,108,110,112,114,116,118,120,122,124,126,-1,-1,-1,-1,-1,-1,-1,-1,-1,-1,-1,-1,-1,-1,-1,-1,-1,-1,-1,-1,-1,-1,-1,-1,-1,-1,-1,-1,-1,-1,-1,-1,-1,-1,-1,-1,-1,-1,-1,-1,-1,-1,-1,-1,-1,-1,-1,-1,-1,-1,-1,-1,-1,-1,-1,-1,-1,-1,-1,-1,-1,-1,-1,-1],"split_conditions":[2E0,1.8324E5,3E0,1.571E1,9.0856E4,3E0,6.21E2,3.1E1,3.62E2,3E0,1.525E1,5.2766E4,1.789E1,5.79E0,1E0,1E0,2.5E1,6.6E1,3.1E-1,6.96E2,7.15E0,3.17E0,8.9E1,5.27E2,1.195E1,4.9E1,2.6949E4,6.1E1,1.8E1,1.7E1,6.1E1,3.43E2,1.553E1,4.08E0,1.06E2,1E0,5.7E-1,2.8E1,3E0,5.8E1,2.134E4,6E1,3.7E-1,1.47921E5,1E0,3.8E-1,9.3E1,1E0,1.5441E4,5.7E-1,1.32027E5,2E0,2.99E0,4.7E-1,1.18352E5,2.20465E5,5.25E0,3.4E-1,3E0,4E0,3.8E-1,2.068E1,2.1E-1,1.683158E-1,4.2830873E-2,-4.066681E-3,-5.046586E-1,-7.533209E-2,3.6589444E-2,-3.8739346E-2,-1.2143005E-1,1.5001197E-1,7.9729676E-2,-2.8199023E-1,1.4524646E-1,3.6427163E-2,-4.1767266E-2,8.465591E-3,5.9791498E-2,8.841463E-2,5.2805496E-3,1.3484927E-1,-4.2488063E-3,7.7662855E-2,-2.2239667E-1,9.4755925E-2,1.5764777E-1,-1.5850726E-1,3.3722115E-1,2.8355345E-2,-4.2540967E-2,1.3230428E-2,8.838534E-2,-1.8791837E-1,3.0716737E-3,3.3478376E-2,-9.919749E-2,-2.5535458E-1,-1.3441303E-1,-1.0768012E-1,-5.5382688E-2,-2.0319013E-2,-1.1721773E-1,4.5381267E-2,-3.941667E-2,1.2464987E-1,-1.0411892E-1,4.0212102E-2,-2.1259488E-1,7.539403E-2,-1.6014691E-2,-3.3058014E-2,1.2202667E-1,-8.045972E-2,-2.9588762E-1,2.20267E-2,1.042789E-1,3.9436895E-2,-1.8609725E-2,1.4638816E-2,1.1540835E-1,-8.077356E-2,4.746707E-3,-6.643762E-2,1.837721E-2,-3.267475E-1,-1.3342871E-1],"split_indices":[9,2,5,6,1,10,3,4,3,10,6,2,6,6,15,13,0,0,8,3,6,6,4,3,6,0,2,4,4,4,0,3,6,6,4,11,8,0,5,0,1,0,8,1,15,8,4,14,2,8,1,14,6,8,1,2,6,8,14,5,8,6,8,0,0,0,0,0,0,0,0,0,0,0,0,0,0,0,0,0,0,0,0,0,0,0,0,0,0,0,0,0,0,0,0,0,0,0,0,0,0,0,0,0,0,0,0,0,0,0,0,0,0,0,0,0,0,0,0,0,0,0,0,0,0,0,0],"split_type":[0,0,0,0,0,0,0,0,0,0,0,0,0,0,0,0,0,0,0,0,0,0,0,0,0,0,0,0,0,0,0,0,0,0,0,0,0,0,0,0,0,0,0,0,0,0,0,0,0,0,0,0,0,0,0,0,0,0,0,0,0,0,0,0,0,0,0,0,0,0,0,0,0,0,0,0,0,0,0,0,0,0,0,0,0,0,0,0,0,0,0,0,0,0,0,0,0,0,0,0,0,0,0,0,0,0,0,0,0,0,0,0,0,0,0,0,0,0,0,0,0,0,0,0,0,0,0],"sum_hessian":[9.749405E4,5.0682184E4,4.6811863E4,3.5147633E4,1.5534554E4,2.2518262E4,2.4293604E4,1.8272066E4,1.6875564E4,9.59961E3,5.934944E3,1.6358067E4,6.160194E3,1.4726297E4,9.567306E3,5.6573867E3,1.2614681E4,2.1345718E3,1.4740992E4,6.930733E3,2.6688772E3,2.943913E3,2.9910305E3,2.7183218E3,1.3639745E4,3.7962166E3,2.3639773E3,1.7949257E3,1.2931372E4,4.996613E3,4.570693E3,2.960667E3,2.6967197E3,2.4501367E3,1.0164544E4,2.0339307E3,1.0064119E2,3.5906035E3,1.1150389E4,5.176826E3,1.7539069E3,4.6684317E2,2.202034E3,2.1516876E2,2.7287444E3,2.3436453E3,6.473853E2,1.2312719E3,1.4870499E3,4.9904404E3,8.649305E3,2.69955E3,1.0966665E3,1.7652759E2,2.1874497E3,1.0347661E3,7.6015955E2,2.3659736E3,1.0565398E4,8.901123E2,4.1065005E3,4.0607256E3,5.0996738E2,2.8209213E2,2.678575E3,2.6707644E3,2.5955233E1,2.795793E2,2.1705574E3,8.83873E3,1.3258129E3,7.0388293E2,1.3300477E3,4.993231E1,5.0708878E1,8.849291E2,2.7056743E3,5.3662964E3,5.7840923E3,4.2905815E3,8.8624475E2,1.8865427E2,1.5652526E3,4.158489E2,5.0994278E1,6.70778E2,1.531256E3,2.0124745E2,1.3921301E1,1.4867554E3,1.2419891E3,7.4243445E2,1.6012108E3,6.0347786E1,5.8703754E2,2.7507712E2,9.561947E2,3.1023065E2,1.1768192E3,2.8058232E3,2.184617E3,7.6387915E3,1.0105135E3,1.1568785E3,1.5426714E3,6.579182E1,1.0308746E3,8.823299E1,8.82946E1,1.7208693E3,4.665804E2,8.7757166E2,1.5719452E2,6.549341E2,1.0522541E2,6.4657086E2,1.7194028E3,6.490648E3,4.07475E3,4.297721E2,4.6034024E2,1.3143601E3,2.7921406E3,3.0987732E3,9.619524E2,5.8897095E1,4.5107028E2],"tree_param":{"num_deleted":"0","num_feature":"16","num_nodes":"127","size_leaf_vector":"1"}},{"base_weights":[-1.1385227E-4,3.4958237E-1,-1.2106014E-2,-3.475435E-1,3.7392977E-1,1.4851367E-1,-3.6319774E-2,-4.9322602E-1,7.4096984E-1,1.6857697E-1,4.3370843E-1,2.1422152E-1,4.14348E-2,-7.429659E-2,6.9431424E-2,-6.262471E-2,-1.1049541E0,1.4370309E0,-4.1951263E-1,5.19053E-2,5.674697E-1,4.881948E-1,1.5148084E-1,1.6143043E-1,3.6258465E-1,5.926215E-2,-6.531975E-1,-1.1089335E-2,-1.438646E-1,1.8180466E-1,2.4463305E-2,-9.8685277E-1,4.1508725E-1,9.009143E-1,-1.4111944E0,1.9150112E0,-2.6315683E-1,2.2637744E-1,-2.7744758E-1,6.4152074E-1,1.5819421E-2,5.163671E-1,1.0219199E-1,3.4532022E-1,-3.4668177E-1,2.7810293E-1,7.464853E-2,1.5670396E-1,4.2335284E-1,3.0744441E-3,2.1387334E-1,-9.61373E-1,-4.2764423E-3,-4.2340663E-1,2.3675882E-3,-7.4616216E-2,-2.1762769E-1,3.0724445E-1,1.292136E-1,-1.721416E-1,5.8339734E-2,-7.249029E-2,-5.169684E-1,2.9755914E-1,-9.523391E-2,4.078552E-1,1.0213924E-1,4.3790594E-1,-4.8567984E-1,2.758827E-1,6.5120804E-1,1.0504298E-1,-1.2698573E-1,-3.943687E-1,-3.595586E-2,2.4801208E-1,1.13649234E-1,-3.832862E-1,1.6533126E-1,1.8175316E-1,1.255157E-1,-2.646453E-1,7.8847215E-2,1.4840622E-1,7.6996405E-3,9.531274E-2,-2.0402794E-1,1.2888055E-1,5.754003E-2,7.18404E-2,-4.954336E-3,5.3873982E-2,-3.6047018E-1,7.170197E-2,1.5100068E-1,-1.8062806E-2,5.987901E-2,3.0987887E-2,1.238339E-1,-1.1229357E-1,-4.4232467E-1,-3.053346E-1,1.3103198E-1,-4.6786785E-2,-1.717383E-1,3.0256294E-2,-1.5069781E-2,-4.5502543E-2,2.4020018E-3,2.546149E-3,-7.5873904E-2,2.8460443E-2,1.0976625E-1,1.7411979E-2,8.508668E-2,-2.1695578E-2,-1.23148054E-1,4.5856617E-2,2.3582957E-3],"categories":[],"categories_nodes":[],"categories_segments":[],"categories_sizes":[],"default_left":[0,0,0,0,0,0,0,0,0,0,0,0,0,0,0,0,0,0,0,0,0,0,0,0,0,0,0,0,0,0,0,0,0,0,0,0,0,0,0,0,0,0,0,0,0,0,0,0,0,0,0,0,0,0,0,0,0,0,0,0,0,0,0,0,0,0,0,0,0,0,0,0,0,0,0,0,0,0,0,0,0,0,0,0,0,0,0,0,0,0,0,0,0,0,0,0,0,0,0,0,0,0,0,0,0,0,0,0,0,0,0,0,0,0,0,0,0,0,0],"id":9,"left_children":[1,3,5,7,9,11,13,15,17,19,21,23,25,27,29,31,33,35,-1,37,39,41,43,45,47,49,51,53,55,57,59,61,63,65,67,69,-1,71,73,75,77,79,81,83,85,87,89,91,93,95,97,99,101,103,105,107,109,111,113,115,117,-1,-1,-1,-1,-1,-1,-1,-1,-1,-1,-1,-1,-1,-1,-1,-1,-1,-1,-1,-1,-1,-1,-1,-1,-1,-1,-1,-1,-1,-1,-1,-1,-1,-1,-1,-1,-1,-1,-1,-1,-1,-1,-1,-1,-1,-1,-1,-1,-1,-1,-1,-1,-1,-1,-1,-1,-1,-1],"loss_changes":[4.0546716E2,5.454187E1,3.6357254E2,1.7603165E1,3.7957764E1,8.615662E1,3.2625482E2,2.5342438E1,2.1711483E1,3.2555054E1,3.681534E1,5.938141E1,5.7725506E1,2.6282535E2,1.08463486E2,2.587523E1,2.5715736E1,1.3267719E1,0E0,3.1253994E1,6.4581604E0,2.1807983E1,3.7744324E1,5.6671844E1,2.4841736E1,3.946317E1,2.3322998E1,1.7377235E2,1.4532568E2,4.043019E1,1.02122444E2,1.0531284E1,1.667775E1,1.0487051E0,2.3184746E1,2.9353333E-1,0E0,2.8723358E1,3.0638569E1,6.476761E0,1.4388486E1,1.6169739E1,2.2049706E1,1.3403641E1,2.4503336E1,3.1139435E1,4.8270027E1,1.4362893E1,2.253601E1,4.1462173E1,2.658984E1,2.3266884E1,1.7682625E1,3.937079E1,1.5712535E2,9.3451065E1,1.0992474E2,2.2525864E1,4.750492E1,5.3592743E1,6.2398445E1,0E0,0E0,0E0,0E0,0E0,0E0,0E0,0E0,0E0,0E0,0E0,0E0,0E0,0E0,0E0,0E0,0E0,0E0,0E0,0E0,0E0,0E0,0E0,0E0,0E0,0E0,0E0,0E0,0E0,0E0,0E0,0E0,0E0,0E0,0E0,0E0,0E0,0E0,0E0,0E0,0E0,0E0,0E0,0E0,0E0,0E0,0E0,0E0,0E0,0E0,0E0,0E0,0E0,0E0,0E0,0E0,0E0,0E0],"parents":[2147483647,0,0,1,1,2,2,3,3,4,4,5,5,6,6,7,7,8,8,9,9,10,10,11,11,12,12,13,13,14,14,15,15,16,16,17,17,19,19,20,20,21,21,22,22,23,23,24,24,25,25,26,26,27,27,28,28,29,29,30,30,31,31,32,32,33,33,34,34,35,35,37,37,38,38,39,39,40,40,41,41,42,42,43,43,44,44,45,45,46,46,47,47,48,48,49,49,50,50,51,51,52,52,53,53,54,54,55,55,56,56,57,57,58,58,59,59,60,60],"right_children":[2,4,6,8,10,12,14,16,18,20,22,24,26,28,30,32,34,36,-1,38,40,42,44,46,48,50,52,54,56,58,60,62,64,66,68,70,-1,72,74,76,78,80,82,84,86,88,90,92,94,96,98,100,102,104,106,108,110,112,114,116,118,-1,-1,-1,-1,-1,-1,-1,-1,-1,-1,-1,-1,-1,-1,-1,-1,-1,-1,-1,-1,-1,-1,-1,-1,-1,-1,-1,-1,-1,-1,-1,-1,-1,-1,-1,-1,-1,-1,-1,-1,-1,-1,-1,-1,-1,-1,-1,-1,-1,-1,-1,-1,-1,-1,-1,-1,-1,-1],"split_conditions":[1.8126E4,2.0318E4,2.3E1,1.11E2,1E0,6.9E1,4E0,4.9E-1,1.418E1,2.1003E5,7.46E2,1.978E1,8.33E2,1E0,2.9E1,2.9E-1,5.958E3,4.8E1,-4.1951263E-1,6.9E1,1.01E2,1.09E2,5.1E1,2E0,1E0,3E0,1.8799E5,3.08E0,1E0,5.1969E4,4.8838E4,3E0,3.7E1,1E0,2.19E0,6.34E2,-2.6315683E-1,5.8E1,7.8E1,3E0,1.525E1,1E0,7.5821E4,2E0,1E0,6.1962E4,1E0,2.44333E5,8.4474E4,1.99576E5,2E0,3.6E1,1.195E1,2E0,1E0,5.3E-1,1.3E1,1E0,6.8E-1,5.1E1,1E0,-7.249029E-2,-5.169684E-1,2.9755914E-1,-9.523391E-2,4.078552E-1,1.0213924E-1,4.3790594E-1,-4.8567984E-1,2.758827E-1,6.5120804E-1,1.0504298E-1,-1.2698573E-1,-3.943687E-1,-3.595586E-2,2.4801208E-1,1.13649234E-1,-3.832862E-1,1.6533126E-1,1.8175316E-1,1.255157E-1,-2.646453E-1,7.8847215E-2,1.4840622E-1,7.6996405E-3,9.531274E-2,-2.0402794E-1,1.2888055E-1,5.754003E-2,7.18404E-2,-4.954336E-3,5.3873982E-2,-3.6047018E-1,7.170197E-2,1.5100068E-1,-1.8062806E-2,5.987901E-2,3.0987887E-2,1.238339E-1,-1.1229357E-1,-4.4232467E-1,-3.053346E-1,1.3103198E-1,-4.6786785E-2,-1.717383E-1,3.0256294E-2,-1.5069781E-2,-4.5502543E-2,2.4020018E-3,2.546149E-3,-7.5873904E-2,2.8460443E-2,1.0976625E-1,1.7411979E-2,8.508668E-2,-2.1695578E-2,-1.23148054E-1,4.5856617E-2,2.3582957E-3],"split_indices":[1,2,0,4,10,4,5,8,6,2,3,6,3,13,4,8,2,7,0,4,4,4,0,14,10,10,2,6,12,1,2,5,4,11,6,3,0,0,4,5,6,15,2,11,9,1,11,2,2,2,11,7,6,5,11,8,4,10,8,0,11,0,0,0,0,0,0,0,0,0,0,0,0,0,0,0,0,0,0,0,0,0,0,0,0,0,0,0,0,0,0,0,0,0,0,0,0,0,0,0,0,0,0,0,0,0,0,0,0,0,0,0,0,0,0,0,0,0,0],"split_type":[0,0,0,0,0,0,0,0,0,0,0,0,0,0,0,0,0,0,0,0,0,0,0,0,0,0,0,0,0,0,0,0,0,0,0,0,0,0,0,0,0,0,0,0,0,0,0,0,0,0,0,0,0,0,0,0,0,0,0,0,0,0,0,0,0,0,0,0,0,0,0,0,0,0,0,0,0,0,0,0,0,0,0,0,0,0,0,0,0,0,0,0,0,0,0,0,0,0,0,0,0,0,0,0,0,0,0,0,0,0,0,0,0,0,0,0,0,0,0],"sum_hessian":[9.668481E4,3.2047542E3,9.3480055E4,1.0770213E2,3.097052E3,1.2245507E4,8.123455E4,9.547147E1,1.223066E1,6.991476E2,2.3979043E3,7.5881294E3,4.657378E3,5.9770406E4,2.146414E4,5.6677795E1,3.879368E1,9.4758625E0,2.7547984E0,5.4180566E2,1.5734198E2,2.0092687E3,3.8863574E2,5.5982344E3,1.989895E3,4.5417314E3,1.1564631E2,3.1317494E4,2.8452914E4,6.1335767E3,1.5330564E4,1.8949827E1,3.772797E1,4.881049E0,3.391263E1,7.996719E0,1.4791437E0,3.5438538E2,1.8742026E2,1.385771E2,1.8764875E1,1.8722832E3,1.369855E2,2.7999435E2,1.0864141E2,2.3869434E3,3.211291E3,4.5430438E2,1.5355906E3,3.331897E3,1.2098345E3,7.80829E1,3.756341E1,9.8885077E2,3.0328643E4,1.4676608E4,1.3776306E4,1.8104537E3,4.3231226E3,2.2527053E3,1.3077859E4,1.0078467E1,8.87136E0,2.091E1,1.681797E1,1.9003106E0,2.9807386E0,1.8816887E0,3.2030937E1,2.5736942E0,5.4230247E0,2.980631E2,5.632227E1,2.3754288E1,1.6366597E2,8.001945E1,5.855765E1,5.0867224E0,1.3678153E1,9.7590356E2,8.9637964E2,1.8587952E1,1.18397545E2,1.9045271E2,8.954164E1,3.63178E1,7.2323616E1,8.648243E2,1.5221191E3,1.1430571E3,2.068234E3,4.4763315E2,6.671239E0,4.6585797E2,1.0697325E3,2.520835E3,8.110619E2,7.78534E2,4.3130048E2,3.7221222E1,4.0861675E1,1.0993462E1,2.6569948E1,3.5461148E2,6.3423926E2,1.0558454E4,1.977019E4,7.593568E3,7.0830405E3,1.8597073E3,1.1916599E4,3.9231152E2,1.4181422E3,2.9600725E3,1.3630503E3,1.5886669E3,6.6403845E2,4.552256E3,8.525604E3],"tree_param":{"num_deleted":"0","num_feature":"16","num_nodes":"119","size_leaf_vector":"1"}},{"base_weights":[7.615304E-5,5.999012E-2,-6.611506E-2,8.85178E-2,-7.175481E-2,-9.837117E-2,5.5018086E-2,3.19865E-1,6.915372E-2,-1.0743076E-1,2.0577307E-1,-2.137205E-1,-6.27137E-2,1.4829521E-1,-1.7262079E-2,-3.708051E-3,3.6777654E-1,1.1630298E-1,-2.6689364E-2,1.0552647E-3,-2.013552E-1,2.8398368E-1,-3.8621444E-1,2.8659519E-2,-2.6678628E-1,-1.9415326E-2,-1.4740336E-1,2.2791098E-1,5.1328624E-3,-6.477603E-2,2.6765034E-1,-8.011099E-1,9.795177E-2,7.590992E-2,4.077598E-1,1.8102711E-1,4.5232818E-2,-8.007458E-2,1.1679589E-1,1.0922084E-1,-1.2413093E-1,-3.3902076E-1,-7.603672E-2,1.6080974E-1,5.244776E-1,1.8647158E-1,-8.398461E-1,-6.1637312E-2,2.5596896E-1,-1.0986032E-1,-3.2025406E-1,-9.9829845E-2,3.7319172E-2,-1.097471E-1,-3.4430912E-1,2.7978933E-1,-1.1473025E-1,-9.417676E-1,2.831451E-2,6.0267087E-2,-1.5928602E-1,3.985817E-1,-3.721399E-2,-1.2085519E-1,-4.586533E-1,2.1505904E-1,-1.645788E-2,4.4193782E-2,-4.0587845E-1,1.6381238E-1,9.86522E-2,7.51236E-2,3.166544E-2,1.1298328E-3,4.741356E-2,3.1662736E-2,-3.693071E-2,-1.0453425E-1,4.4811435E-2,5.3930517E-2,-7.416196E-2,1.04754664E-1,-5.012629E-2,-9.203052E-2,-2.726782E-1,7.575901E-3,-9.932735E-2,6.065746E-2,-4.8234978E-1,1.21292055E-1,2.9239583E-1,3.1409013E-1,-1.0071148E-1,-3.290235E-1,2.0644553E-1,-3.1991534E-2,2.5133947E-1,-8.790888E-2,1.2122764E-1,-5.3881112E-2,7.846314E-2,-7.7326156E-2,-1.2623495E-1,-5.130937E-2,1.0916461E-2,1.7002728E-2,-9.430221E-2,-2.43318E-2,-8.962762E-2,-1.452956E-1,-5.1245157E-2,1.16815604E-1,5.8053482E-2,-1.6767041E-1,4.2200424E-2,-3.4901145E-1,3.1756702E-1,-2.0900074E-2,6.1949056E-2,-1.503584E-2,9.8959625E-2,-2.048739E-2,-9.142719E-2,2.4859677E-3,1.4311965E-1,-2.7243838E-1,5.1810037E-2],"categories":[],"categories_nodes":[],"categories_segments":[],"categories_sizes":[],"default_left":[0,0,0,0,0,0,0,0,0,0,0,0,0,0,0,0,0,0,0,0,0,0,0,0,0,0,0,0,0,0,0,0,0,0,0,0,0,0,0,0,0,0,0,0,0,0,0,0,0,0,0,0,0,0,0,0,0,0,0,0,0,0,0,0,0,0,0,0,0,0,0,0,0,0,0,0,0,0,0,0,0,0,0,0,0,0,0,0,0,0,0,0,0,0,0,0,0,0,0,0,0,0,0,0,0,0,0,0,0,0,0,0,0,0,0,0,0,0,0,0,0,0,0,0,0,0,0],"id":10,"left_children":[1,3,5,7,9,11,13,15,17,19,21,23,25,27,29,31,33,35,37,39,41,43,45,47,49,51,53,55,57,59,61,63,65,67,69,71,73,75,77,79,81,83,85,87,89,91,93,95,97,99,101,103,105,107,109,111,113,115,117,119,121,123,125,-1,-1,-1,-1,-1,-1,-1,-1,-1,-1,-1,-1,-1,-1,-1,-1,-1,-1,-1,-1,-1,-1,-1,-1,-1,-1,-1,-1,-1,-1,-1,-1,-1,-1,-1,-1,-1,-1,-1,-1,-1,-1,-1,-1,-1,-1,-1,-1,-1,-1,-1,-1,-1,-1,-1,-1,-1,-1,-1,-1,-1,-1,-1,-1],"loss_changes":[3.809171E2,1.8948918E2,1.78314E2,1.8563428E2,8.887787E1,1.4821631E2,6.470752E1,4.962027E1,1.7282124E2,8.103496E1,4.7454853E1,1.09457184E2,1.0094855E2,4.775757E1,7.322804E1,3.3621403E1,3.2502502E1,1.179039E2,9.6608215E1,4.99971E1,7.35103E1,2.6689262E1,3.1267996E1,3.140538E1,5.85401E1,8.311897E1,6.901819E1,4.7895477E1,3.2919163E1,5.479577E1,3.0877087E1,1.2976101E1,3.483295E1,3.4593662E1,2.6576141E1,7.022763E1,5.7159527E1,7.342468E1,5.1885223E1,4.9852135E1,3.485662E1,3.705046E1,5.768569E1,4.4176056E1,1.61427E1,2.4503273E1,2.705732E1,4.4423393E1,3.5491024E1,4.6041786E1,3.260443E1,7.310199E1,7.273245E1,4.230748E1,3.6223923E1,2.20401E1,4.0325535E1,1.7117529E1,2.556731E1,5.9426975E1,3.4932808E1,1.6566803E1,4.2791363E1,0E0,0E0,0E0,0E0,0E0,0E0,0E0,0E0,0E0,0E0,0E0,0E0,0E0,0E0,0E0,0E0,0E0,0E0,0E0,0E0,0E0,0E0,0E0,0E0,0E0,0E0,0E0,0E0,0E0,0E0,0E0,0E0,0E0,0E0,0E0,0E0,0E0,0E0,0E0,0E0,0E0,0E0,0E0,0E0,0E0,0E0,0E0,0E0,0E0,0E0,0E0,0E0,0E0,0E0,0E0,0E0,0E0,0E0,0E0,0E0,0E0,0E0,0E0,0E0],"parents":[2147483647,0,0,1,1,2,2,3,3,4,4,5,5,6,6,7,7,8,8,9,9,10,10,11,11,12,12,13,13,14,14,15,15,16,16,17,17,18,18,19,19,20,20,21,21,22,22,23,23,24,24,25,25,26,26,27,27,28,28,29,29,30,30,31,31,32,32,33,33,34,34,35,35,36,36,37,37,38,38,39,39,40,40,41,41,42,42,43,43,44,44,45,45,46,46,47,47,48,48,49,49,50,50,51,51,52,52,53,53,54,54,55,55,56,56,57,57,58,58,59,59,60,60,61,61,62,62],"right_children":[2,4,6,8,10,12,14,16,18,20,22,24,26,28,30,32,34,36,38,40,42,44,46,48,50,52,54,56,58,60,62,64,66,68,70,72,74,76,78,80,82,84,86,88,90,92,94,96,98,100,102,104,106,108,110,112,114,116,118,120,122,124,126,-1,-1,-1,-1,-1,-1,-1,-1,-1,-1,-1,-1,-1,-1,-1,-1,-1,-1,-1,-1,-1,-1,-1,-1,-1,-1,-1,-1,-1,-1,-1,-1,-1,-1,-1,-1,-1,-1,-1,-1,-1,-1,-1,-1,-1,-1,-1,-1,-1,-1,-1,-1,-1,-1,-1,-1,-1,-1,-1,-1,-1,-1,-1,-1],"split_conditions":[1E0,5.7E1,2.113E1,2.342E4,2.32E1,2E0,3.7E1,4.8838E4,6.57E2,4.7E1,1E2,3.88E2,9.9324E4,6.42E2,2.19523E5,6.25E0,5.34E0,2E0,3E0,1E0,5E-1,6.7E-1,9.9728E4,3E0,4.1928E4,1.19946E5,9.6E1,1.29359E5,6.49E2,4.3E1,9.9873E4,3E0,9.29E0,2.2899E4,1E0,1E0,1.91837E5,1.8E1,4.26E0,1.20922E5,3.37E2,1.41033E5,6.6E1,1.45287E5,2.08141E5,1E0,7.95E2,1.44184E5,3.2E-1,2.21359E5,3E0,2E0,6.6E1,5.9E1,1.436E1,4.37E2,4.46E2,2.43379E5,1.70932E5,3E0,3E0,2.4E1,2.213E1,-1.2085519E-1,-4.586533E-1,2.1505904E-1,-1.645788E-2,4.4193782E-2,-4.0587845E-1,1.6381238E-1,9.86522E-2,7.51236E-2,3.166544E-2,1.1298328E-3,4.741356E-2,3.1662736E-2,-3.693071E-2,-1.0453425E-1,4.4811435E-2,5.3930517E-2,-7.416196E-2,1.04754664E-1,-5.012629E-2,-9.203052E-2,-2.726782E-1,7.575901E-3,-9.932735E-2,6.065746E-2,-4.8234978E-1,1.21292055E-1,2.9239583E-1,3.1409013E-1,-1.0071148E-1,-3.290235E-1,2.0644553E-1,-3.1991534E-2,2.5133947E-1,-8.790888E-2,1.2122764E-1,-5.3881112E-2,7.846314E-2,-7.7326156E-2,-1.2623495E-1,-5.130937E-2,1.0916461E-2,1.7002728E-2,-9.430221E-2,-2.43318E-2,-8.962762E-2,-1.452956E-1,-5.1245157E-2,1.16815604E-1,5.8053482E-2,-1.6767041E-1,4.2200424E-2,-3.4901145E-1,3.1756702E-1,-2.0900074E-2,6.1949056E-2,-1.503584E-2,9.8959625E-2,-2.048739E-2,-9.142719E-2,2.4859677E-3,1.4311965E-1,-2.7243838E-1,5.1810037E-2],"split_indices":[15,0,6,1,6,5,0,2,3,4,4,3,1,3,2,6,6,9,10,13,8,8,2,10,1,2,4,1,3,4,1,14,6,1,11,12,2,4,6,1,3,1,0,1,2,9,3,1,8,2,14,11,0,0,6,3,3,2,2,10,14,7,6,0,0,0,0,0,0,0,0,0,0,0,0,0,0,0,0,0,0,0,0,0,0,0,0,0,0,0,0,0,0,0,0,0,0,0,0,0,0,0,0,0,0,0,0,0,0,0,0,0,0,0,0,0,0,0,0,0,0,0,0,0,0,0,0],"split_type":[0,0,0,0,0,0,0,0,0,0,0,0,0,0,0,0,0,0,0,0,0,0,0,0,0,0,0,0,0,0,0,0,0,0,0,0,0,0,0,0,0,0,0,0,0,0,0,0,0,0,0,0,0,0,0,0,0,0,0,0,0,0,0,0,0,0,0,0,0,0,0,0,0,0,0,0,0,0,0,0,0,0,0,0,0,0,0,0,0,0,0,0,0,0,0,0,0,0,0,0,0,0,0,0,0,0,0,0,0,0,0,0,0,0,0,0,0,0,0,0,0,0,0,0,0,0,0],"sum_hessian":[9.604904E4,5.0415125E4,4.5633914E4,4.144177E4,8.973357E3,3.603774E4,9.596173E3,3.1996228E3,3.8242145E4,7.9517773E3,1.0215807E3,8.50847E3,2.752927E4,4.189106E3,5.4070674E3,4.127847E2,2.786838E3,2.5632314E4,1.2609832E4,3.6903186E3,4.2614585E3,9.028241E2,1.187566E2,1.528311E3,6.9801587E3,1.8216928E4,9.312343E3,2.6916353E3,1.4974706E3,4.634893E3,7.72174E2,4.5896927E1,3.6688776E2,3.3612396E2,2.450714E3,1.341428E4,1.2218034E4,9.190756E3,3.4190764E3,1.9798131E3,1.7105055E3,2.0298793E3,2.2315793E3,5.9814197E2,3.0468213E2,5.2750637E1,6.600596E1,1.0943273E3,4.339838E2,1.7746575E3,5.205501E3,7.5354907E3,1.0681437E4,7.818659E3,1.4936831E3,2.337851E3,3.5378412E2,3.4837517E1,1.462633E3,1.9953165E3,2.6395767E3,5.399654E2,2.3220862E2,3.066745E1,1.5229476E1,7.191773E1,2.9497003E2,3.2098065E2,1.5143321E1,8.883084E2,1.5624056E3,6.987939E3,6.426341E3,8.93486E3,3.283174E3,1.7292992E3,7.4614565E3,2.2309805E2,3.1959785E3,1.6531094E3,3.2670377E2,1.4173099E2,1.5687744E3,1.9226122E3,1.0726699E2,1.5979047E3,6.336747E2,5.8533234E2,1.280963E1,2.4198438E2,6.2697746E1,1.9542128E1,3.3208508E1,5.6747383E1,9.258579E0,1.0430234E3,5.130378E1,9.200422E1,3.4197958E2,1.4945272E3,2.8013037E2,3.2120767E3,1.9934247E3,4.9485967E3,2.586894E3,1.0124962E4,5.5647437E2,6.791037E3,1.0276224E3,8.2561395E2,6.6806915E2,1.0282205E3,1.3096306E3,1.2872542E2,2.250587E2,3.1739677E1,3.0978384E0,9.440916E2,5.1854144E2,1.4162498E3,5.7906683E2,1.6247424E3,1.0148343E3,9.058703E1,4.4937836E2,4.4452637E1,1.8775598E2],"tree_param":{"num_deleted":"0","num_feature":"16","num_nodes":"127","size_leaf_vector":"1"}},{"base_weights":[-6.0992907E-6,-3.1871006E-2,8.738051E-2,1.7013382E-2,-8.3785474E-2,1.7980407E-1,3.8615193E-2,-6.669038E-3,1.2652473E-1,-4.8724663E-2,-1.939156E-1,2.3017289E-1,7.3740564E-2,-5.057086E-2,1.21414684E-1,-1.8919142E-1,1.2715555E-2,1.7993891E-1,-3.2436125E-2,-6.5917775E-2,1.4434308E-1,-1.23349205E-1,-3.0668947E-1,2.615786E-1,-3.0853389E-2,-2.1642329E-1,1.2207465E-1,4.4275545E-2,-1.4060639E-1,3.6518243E-1,9.007598E-2,-4.2873412E-2,-3.552151E-1,1.00506425E-1,-2.5258109E-2,2.9556102E-1,1.1580417E-1,-2.66398E-1,3.584748E-2,3.0410646E-2,-1.0658725E-1,2.543832E-1,-1.8241303E-2,2.3690935E-2,-2.0327593E-1,-3.9654398E-1,-1.6104786E-1,6.628724E-2,2.938076E-1,-2.1651325E-1,2.2899152E-1,5.2260184E-1,-4.3485335E-1,7.509119E-1,9.134922E-2,3.2242098E-1,-2.5163176E-3,-1.1058675E-1,-4.3384248E-1,-1.8147951E-1,4.1653714E-1,2.630378E-1,4.3628655E-2,2.6498655E-2,-7.003958E-2,-3.1571814E-1,-8.2917914E-2,-9.1050915E-2,3.6318716E-2,5.3217186E-4,-3.9197523E-2,1.1686624E-2,1.0234466E-1,1.0540193E-1,1.9812802E-2,-3.6364675E-2,-2.865543E-1,-5.4152507E-2,3.7678212E-2,-2.3426253E-2,3.0620296E-2,-1.0213846E-1,-2.5700739E-2,8.666914E-2,-9.941685E-2,3.943436E-2,-7.669628E-2,-8.134478E-2,2.6471874E-2,-9.448696E-2,-2.9347248E-2,-3.0120669E-2,-1.4481495E-1,-1.3184558E-1,-4.4699665E-3,-3.0582596E-2,1.4108193E-1,1.0737086E-1,5.6999985E-2,2.216478E-1,-1.0160528E-1,1.17236875E-1,-1.3119748E-1,3.2716173E-1,-6.380927E-2,-8.119157E-2,-3.1065172E-1,3.2403708E-1,-2.6400646E-2,-1.2810168E-1,3.7667196E-2,2.6684674E-2,1.482298E-1,-6.502786E-2,1.8297229E-2,-2.6769878E-2,-1.654898E-1,-2.2904141E-1,-1.9115712E-2,-3.7750772E-1,2.7794193E-2,9.378434E-2,1.8430519E-1,-3.3395957E-2,9.618812E-2,1.9635849E-2,-1.1830845E-1],"categories":[],"categories_nodes":[],"categories_segments":[],"categories_sizes":[],"default_left":[0,0,0,0,0,0,0,0,0,0,0,0,0,0,0,0,0,0,0,0,0,0,0,0,0,0,0,0,0,0,0,0,0,0,0,0,0,0,0,0,0,0,0,0,0,0,0,0,0,0,0,0,0,0,0,0,0,0,0,0,0,0,0,0,0,0,0,0,0,0,0,0,0,0,0,0,0,0,0,0,0,0,0,0,0,0,0,0,0,0,0,0,0,0,0,0,0,0,0,0,0,0,0,0,0,0,0,0,0,0,0,0,0,0,0,0,0,0,0,0,0,0,0,0,0,0,0],"id":11,"left_children":[1,3,5,7,9,11,13,15,17,19,21,23,25,27,29,31,33,35,37,39,41,43,45,47,49,51,53,55,57,59,61,63,65,67,69,71,73,75,77,79,81,83,85,87,89,91,93,95,97,99,101,103,105,107,109,111,113,115,117,119,121,123,125,-1,-1,-1,-1,-1,-1,-1,-1,-1,-1,-1,-1,-1,-1,-1,-1,-1,-1,-1,-1,-1,-1,-1,-1,-1,-1,-1,-1,-1,-1,-1,-1,-1,-1,-1,-1,-1,-1,-1,-1,-1,-1,-1,-1,-1,-1,-1,-1,-1,-1,-1,-1,-1,-1,-1,-1,-1,-1,-1,-1,-1,-1,-1,-1],"loss_changes":[2.6524905E2,1.7714926E2,1.1471294E2,9.32415E1,1.3070454E2,4.694757E1,1.230571E2,1.04590454E2,5.4282417E1,8.525029E1,6.501486E1,4.8866577E1,3.9745564E1,6.851862E1,6.598133E1,6.892808E1,8.909094E1,3.544713E1,2.5708128E1,9.2381584E1,3.757748E1,5.9117645E1,4.110147E1,3.3465088E1,3.0971724E1,6.556427E1,4.6849556E1,5.086131E1,3.618541E1,2.7701416E1,6.151213E1,3.777239E1,7.27623E1,6.704892E1,5.31522E1,1.9949692E1,3.6068184E1,3.6237392E1,2.4217718E1,5.4437065E1,8.10854E1,2.5418121E1,3.0191624E1,3.375084E1,3.8346344E1,4.9579132E1,4.8902733E1,5.135213E1,3.0313232E1,4.3944218E1,2.9020931E1,3.898243E1,3.0588707E1,3.129882E1,4.1126625E1,2.251223E1,4.5540184E1,3.512891E1,4.654518E1,2.5268244E1,1.8306366E1,3.498285E1,5.774427E1,0E0,0E0,0E0,0E0,0E0,0E0,0E0,0E0,0E0,0E0,0E0,0E0,0E0,0E0,0E0,0E0,0E0,0E0,0E0,0E0,0E0,0E0,0E0,0E0,0E0,0E0,0E0,0E0,0E0,0E0,0E0,0E0,0E0,0E0,0E0,0E0,0E0,0E0,0E0,0E0,0E0,0E0,0E0,0E0,0E0,0E0,0E0,0E0,0E0,0E0,0E0,0E0,0E0,0E0,0E0,0E0,0E0,0E0,0E0,0E0,0E0,0E0,0E0,0E0],"parents":[2147483647,0,0,1,1,2,2,3,3,4,4,5,5,6,6,7,7,8,8,9,9,10,10,11,11,12,12,13,13,14,14,15,15,16,16,17,17,18,18,19,19,20,20,21,21,22,22,23,23,24,24,25,25,26,26,27,27,28,28,29,29,30,30,31,31,32,32,33,33,34,34,35,35,36,36,37,37,38,38,39,39,40,40,41,41,42,42,43,43,44,44,45,45,46,46,47,47,48,48,49,49,50,50,51,51,52,52,53,53,54,54,55,55,56,56,57,57,58,58,59,59,60,60,61,61,62,62],"right_children":[2,4,6,8,10,12,14,16,18,20,22,24,26,28,30,32,34,36,38,40,42,44,46,48,50,52,54,56,58,60,62,64,66,68,70,72,74,76,78,80,82,84,86,88,90,92,94,96,98,100,102,104,106,108,110,112,114,116,118,120,122,124,126,-1,-1,-1,-1,-1,-1,-1,-1,-1,-1,-1,-1,-1,-1,-1,-1,-1,-1,-1,-1,-1,-1,-1,-1,-1,-1,-1,-1,-1,-1,-1,-1,-1,-1,-1,-1,-1,-1,-1,-1,-1,-1,-1,-1,-1,-1,-1,-1,-1,-1,-1,-1,-1,-1,-1,-1,-1,-1,-1,-1,-1,-1,-1,-1],"split_conditions":[3E0,1E0,1E0,2.177E1,7.07E2,4.8E1,2E0,3.3539E4,8.5E1,2.355E1,3E0,1.04E2,6.97E0,7.4091E4,2.6017E4,2E0,3E1,1E0,2E0,3E1,5.31E2,1E0,1.78E1,2.3E-1,1.67072E5,2.6E-1,3.2E2,3.67E2,1.06E2,3.8338E4,2.6E1,6.08E2,2E-1,3.35E0,9E1,2.4E-1,3.81E2,7.29E2,1E0,1.213E1,4.44E0,1.41033E5,6.5E1,2.6E-1,2E0,2.6E1,4.2E-1,4E0,3E0,1.9311E4,3E0,1E0,1.13085E5,4.8E1,1.6E-1,3.31E2,8.66E0,6.6E1,1.14E2,1.7595E4,6.5E-1,2.3E-1,1.12E2,2.6498655E-2,-7.003958E-2,-3.1571814E-1,-8.2917914E-2,-9.1050915E-2,3.6318716E-2,5.3217186E-4,-3.9197523E-2,1.1686624E-2,1.0234466E-1,1.0540193E-1,1.9812802E-2,-3.6364675E-2,-2.865543E-1,-5.4152507E-2,3.7678212E-2,-2.3426253E-2,3.0620296E-2,-1.0213846E-1,-2.5700739E-2,8.666914E-2,-9.941685E-2,3.943436E-2,-7.669628E-2,-8.134478E-2,2.6471874E-2,-9.448696E-2,-2.9347248E-2,-3.0120669E-2,-1.4481495E-1,-1.3184558E-1,-4.4699665E-3,-3.0582596E-2,1.4108193E-1,1.0737086E-1,5.6999985E-2,2.216478E-1,-1.0160528E-1,1.17236875E-1,-1.3119748E-1,3.2716173E-1,-6.380927E-2,-8.119157E-2,-3.1065172E-1,3.2403708E-1,-2.6400646E-2,-1.2810168E-1,3.7667196E-2,2.6684674E-2,1.482298E-1,-6.502786E-2,1.8297229E-2,-2.6769878E-2,-1.654898E-1,-2.2904141E-1,-1.9115712E-2,-3.7750772E-1,2.7794193E-2,9.378434E-2,1.8430519E-1,-3.3395957E-2,9.618812E-2,1.9635849E-2,-1.1830845E-1],"split_indices":[10,12,11,6,3,0,11,2,4,6,14,4,6,1,1,9,0,11,5,4,3,11,6,8,2,8,3,3,4,2,0,3,8,6,4,8,3,3,10,6,6,1,4,8,11,0,8,5,14,2,9,15,1,7,8,3,6,0,4,1,8,8,4,0,0,0,0,0,0,0,0,0,0,0,0,0,0,0,0,0,0,0,0,0,0,0,0,0,0,0,0,0,0,0,0,0,0,0,0,0,0,0,0,0,0,0,0,0,0,0,0,0,0,0,0,0,0,0,0,0,0,0,0,0,0,0,0],"split_type":[0,0,0,0,0,0,0,0,0,0,0,0,0,0,0,0,0,0,0,0,0,0,0,0,0,0,0,0,0,0,0,0,0,0,0,0,0,0,0,0,0,0,0,0,0,0,0,0,0,0,0,0,0,0,0,0,0,0,0,0,0,0,0,0,0,0,0,0,0,0,0,0,0,0,0,0,0,0,0,0,0,0,0,0,0,0,0,0,0,0,0,0,0,0,0,0,0,0,0,0,0,0,0,0,0,0,0,0,0,0,0,0,0,0,0,0,0,0,0,0,0,0,0,0,0,0,0],"sum_hessian":[9.525486E4,6.980251E4,2.5452354E4,3.5950758E4,3.3851754E4,8.790077E3,1.6662277E4,2.9559332E4,6.3914253E3,2.56783E4,8.1734517E3,5.9590127E3,2.831064E3,8.0219546E3,8.640322E3,2.837078E3,2.6722254E4,4.783827E3,1.607598E3,2.3579182E4,2.0991199E3,5.0288345E3,3.144617E3,5.3190435E3,6.399694E2,4.0375076E2,2.4273132E3,3.9068538E3,4.1151006E3,9.830474E2,7.657275E3,1.5087036E3,1.3283743E3,8.0680884E3,1.8654164E4,1.7055157E3,3.0783115E3,3.625347E2,1.2450634E3,6.9998394E3,1.6579342E4,1.25151E3,8.4760986E2,1.7711595E3,3.257675E3,1.9437098E3,1.2009072E3,7.538927E2,4.5651504E3,3.7336554E2,2.666039E2,9.179243E1,3.119583E2,1.1198335E2,2.3153298E3,5.6174945E2,3.3451045E3,3.7341948E3,3.8090598E2,8.420166E1,8.9884576E2,1.6200022E3,6.0372725E3,8.93891E2,6.1481256E2,1.3367468E2,1.1946996E3,3.899619E2,7.6781265E3,1.4847269E4,3.8068962E3,2.5756796E2,1.4479478E3,5.358618E2,2.5424497E3,3.0039343E2,6.214127E1,3.6474518E2,8.803181E2,2.7841616E3,4.2156777E3,1.3598888E3,1.5219453E4,1.1823523E3,6.915778E1,5.2011993E2,3.2748993E2,3.1753723E2,1.4536223E3,1.5811469E3,1.6765282E3,4.385945E2,1.5051154E3,4.126775E2,7.882297E2,5.3277875E2,2.2111397E2,2.8209368E3,1.7442139E3,4.176089E1,3.3160464E2,2.1484721E2,5.1756687E1,5.151764E1,4.0274788E1,2.461209E2,6.583743E1,8.021671E1,3.1766645E1,1.4262674E2,2.1727031E3,2.3867883E2,3.230706E2,7.6430005E2,2.5808044E3,3.5628948E3,1.7130002E2,2.0091234E2,1.7999362E2,1.6356478E1,6.7845184E1,5.909607E2,3.0788504E2,2.158622E2,1.40414E3,5.7515356E3,2.8573694E2],"tree_param":{"num_deleted":"0","num_feature":"16","num_nodes":"127","size_leaf_vector":"1"}},{"base_weights":[-6.1024242E-5,4.3792922E-2,-4.7887597E-2,9.1029175E-2,-9.058164E-3,-8.294947E-3,-1.10474035E-1,5.0053343E-2,1.6376263E-1,-7.156753E-2,4.8303597E-2,-2.426577E-1,4.841823E-3,-2.0079723E-1,-2.34746E-2,-1.0605772E-1,7.67873E-2,2.7092606E-1,7.815792E-2,4.66334E-2,-1.235783E-1,6.3316576E-2,-1.8268816E-1,-1.5648104E-1,-4.7953543E-1,-9.927422E-2,3.5414003E-2,-2.4145763E-1,-2.5593696E-2,4.4532187E-2,-1.2848528E-1,-4.0862396E-1,-3.3455927E-2,3.1787744E-1,5.811681E-2,1.6132173E-1,3.4149572E-1,-1.0579757E-1,1.3328923E-1,2.7606583E-1,-2.2810861E-2,1.783672E-1,-1.4302853E-1,-1.824544E-1,7.623968E-2,-6.645978E-2,-6.145339E-1,-2.6241687E-1,6.803504E-2,-2.121742E-1,-7.942758E-1,-2.0249608E-1,-9.0741115E-3,6.5245904E-4,1.3898453E-1,-3.5415065E-1,-1.7164771E-1,4.755259E-1,-6.541757E-2,-7.912844E-1,7.096305E-2,-1.5906765E-1,2.8513858E-1,1.2868151E-1,-1.447195E-1,-3.4055836E-2,5.6452215E-2,1.4134803E-1,2.658052E-2,-1.8112402E-2,2.7598059E-2,3.7072238E-2,2.2747858E-1,1.6445357E-1,9.097342E-2,-1.9699357E-2,-2.9296088E-1,-6.67672E-2,5.0157797E-2,1.2281205E-2,1.575954E-1,-2.5857963E-2,7.270763E-2,1.1541558E-1,-2.9343722E-2,-4.8478115E-2,3.1905472E-2,-1.4097167E-2,-2.1170914E-1,1.01203986E-1,1.9382454E-2,4.90495E-4,-3.4911364E-1,-4.643573E-1,-1.376113E-1,-3.657972E-2,-1.7377988E-1,-1.2835832E-1,9.48456E-2,-1.3925195E-2,-2.7336296E-1,-2.7850807E-1,2.4152832E-2,-2.570977E-2,-1.0061567E-1,-1.17223926E-1,7.1358667E-3,1.3471891E-1,-2.6146355E-3,5.0275676E-2,-2.6739342E-2,-7.3971145E-2,-1.5469113E-1,-1.7956924E-2,-9.0580836E-2,1.9605668E-1,-9.269065E-2,-3.1205016E-1,-1.2008198E-2,-3.279726E-1,-1.0343766E-1,2.048247E-3,7.592708E-2,-4.0936776E-2,-2.5498268E-1,-5.5329937E-2,1.6325118E-1],"categories":[],"categories_nodes":[],"categories_segments":[],"categories_sizes":[],"default_left":[0,0,0,0,0,0,0,0,0,0,0,0,0,0,0,0,0,0,0,0,0,0,0,0,0,0,0,0,0,0,0,0,0,0,0,0,0,0,0,0,0,0,0,0,0,0,0,0,0,0,0,0,0,0,0,0,0,0,0,0,0,0,0,0,0,0,0,0,0,0,0,0,0,0,0,0,0,0,0,0,0,0,0,0,0,0,0,0,0,0,0,0,0,0,0,0,0,0,0,0,0,0,0,0,0,0,0,0,0,0,0,0,0,0,0,0,0,0,0,0,0,0,0,0,0,0,0],"id":12,"left_children":[1,3,5,7,9,11,13,15,17,19,21,23,25,27,29,31,33,35,37,39,41,43,45,47,49,51,53,55,57,59,61,63,65,67,69,71,73,75,77,79,81,83,85,87,89,91,93,95,97,99,101,103,105,107,109,111,113,115,117,119,121,123,125,-1,-1,-1,-1,-1,-1,-1,-1,-1,-1,-1,-1,-1,-1,-1,-1,-1,-1,-1,-1,-1,-1,-1,-1,-1,-1,-1,-1,-1,-1,-1,-1,-1,-1,-1,-1,-1,-1,-1,-1,-1,-1,-1,-1,-1,-1,-1,-1,-1,-1,-1,-1,-1,-1,-1,-1,-1,-1,-1,-1,-1,-1,-1,-1],"loss_changes":[1.984514E2,1.23225494E2,1.1214995E2,7.767134E1,8.353474E1,8.535444E1,1.3780315E2,6.959343E1,8.61378E1,6.854186E1,4.2142082E1,2.9963364E1,8.356716E1,6.1287903E1,6.38077E1,5.3546654E1,6.406174E1,3.220175E1,5.2979897E1,5.4292915E1,4.549346E1,3.6247574E1,3.7185337E1,2.5715826E1,3.282218E1,5.548221E1,7.306542E1,5.487726E1,3.2396427E1,1.1986084E2,4.4469532E1,2.9356842E1,3.4933277E1,3.5910614E1,5.3048E1,3.6755356E1,1.9883331E1,4.2039364E1,4.852088E1,4.6379986E1,4.3996292E1,2.6764503E1,3.369426E1,4.038219E1,3.2896797E1,4.374904E1,2.2147446E1,3.2614532E1,4.28507E1,2.4677898E1,2.115326E1,4.3103775E1,3.9908176E1,6.3835804E1,3.328779E1,4.6262634E1,6.281607E1,1.6890814E1,3.716313E1,2.2046677E1,6.141407E1,5.0979416E1,2.9553202E1,0E0,0E0,0E0,0E0,0E0,0E0,0E0,0E0,0E0,0E0,0E0,0E0,0E0,0E0,0E0,0E0,0E0,0E0,0E0,0E0,0E0,0E0,0E0,0E0,0E0,0E0,0E0,0E0,0E0,0E0,0E0,0E0,0E0,0E0,0E0,0E0,0E0,0E0,0E0,0E0,0E0,0E0,0E0,0E0,0E0,0E0,0E0,0E0,0E0,0E0,0E0,0E0,0E0,0E0,0E0,0E0,0E0,0E0,0E0,0E0,0E0,0E0,0E0,0E0],"parents":[2147483647,0,0,1,1,2,2,3,3,4,4,5,5,6,6,7,7,8,8,9,9,10,10,11,11,12,12,13,13,14,14,15,15,16,16,17,17,18,18,19,19,20,20,21,21,22,22,23,23,24,24,25,25,26,26,27,27,28,28,29,29,30,30,31,31,32,32,33,33,34,34,35,35,36,36,37,37,38,38,39,39,40,40,41,41,42,42,43,43,44,44,45,45,46,46,47,47,48,48,49,49,50,50,51,51,52,52,53,53,54,54,55,55,56,56,57,57,58,58,59,59,60,60,61,61,62,62],"right_children":[2,4,6,8,10,12,14,16,18,20,22,24,26,28,30,32,34,36,38,40,42,44,46,48,50,52,54,56,58,60,62,64,66,68,70,72,74,76,78,80,82,84,86,88,90,92,94,96,98,100,102,104,106,108,110,112,114,116,118,120,122,124,126,-1,-1,-1,-1,-1,-1,-1,-1,-1,-1,-1,-1,-1,-1,-1,-1,-1,-1,-1,-1,-1,-1,-1,-1,-1,-1,-1,-1,-1,-1,-1,-1,-1,-1,-1,-1,-1,-1,-1,-1,-1,-1,-1,-1,-1,-1,-1,-1,-1,-1,-1,-1,-1,-1,-1,-1,-1,-1,-1,-1,-1,-1,-1,-1],"split_conditions":[1E0,1E0,3E0,1.69943E5,5E-1,2.1269E4,4E0,2.3E-1,6.7311E4,5.0393E4,6.5E1,5E1,1E0,2.177E1,9.0325E4,8.13E0,3.35E2,4.4E-1,2E0,4.18E2,3.28E2,2.0318E4,3E0,1.09927E5,5.5E1,3E0,2.032E1,3.6E1,3.31E2,3.08E0,8.6E-1,1.8309E4,4E0,4.2E1,1E0,6.4635E4,3.77E2,1.4582E5,4.88E0,6.3E1,2.159E1,1E0,2.383E1,7.09E2,1.9178E4,1.09E2,2.9758E4,3.7E1,2.9E1,4E0,2.346E1,1E0,4.98E0,1.6588E4,1.04E2,6.11E2,2E0,3E0,3.5E2,6.2E-1,1.97714E5,8.3E-1,3.6E1,1.2868151E-1,-1.447195E-1,-3.4055836E-2,5.6452215E-2,1.4134803E-1,2.658052E-2,-1.8112402E-2,2.7598059E-2,3.7072238E-2,2.2747858E-1,1.6445357E-1,9.097342E-2,-1.9699357E-2,-2.9296088E-1,-6.67672E-2,5.0157797E-2,1.2281205E-2,1.575954E-1,-2.5857963E-2,7.270763E-2,1.1541558E-1,-2.9343722E-2,-4.8478115E-2,3.1905472E-2,-1.4097167E-2,-2.1170914E-1,1.01203986E-1,1.9382454E-2,4.90495E-4,-3.4911364E-1,-4.643573E-1,-1.376113E-1,-3.657972E-2,-1.7377988E-1,-1.2835832E-1,9.48456E-2,-1.3925195E-2,-2.7336296E-1,-2.7850807E-1,2.4152832E-2,-2.570977E-2,-1.0061567E-1,-1.17223926E-1,7.1358667E-3,1.3471891E-1,-2.6146355E-3,5.0275676E-2,-2.6739342E-2,-7.3971145E-2,-1.5469113E-1,-1.7956924E-2,-9.0580836E-2,1.9605668E-1,-9.269065E-2,-3.1205016E-1,-1.2008198E-2,-3.279726E-1,-1.0343766E-1,2.048247E-3,7.592708E-2,-4.0936776E-2,-2.5498268E-1,-5.5329937E-2,1.6325118E-1],"split_indices":[13,15,14,2,8,2,14,8,1,1,0,0,10,6,1,6,3,8,5,3,3,2,9,1,4,5,6,7,3,6,8,2,5,0,10,1,3,1,6,4,6,12,6,3,1,4,1,0,0,5,6,15,6,1,4,3,9,10,3,8,2,8,7,0,0,0,0,0,0,0,0,0,0,0,0,0,0,0,0,0,0,0,0,0,0,0,0,0,0,0,0,0,0,0,0,0,0,0,0,0,0,0,0,0,0,0,0,0,0,0,0,0,0,0,0,0,0,0,0,0,0,0,0,0,0,0,0],"split_type":[0,0,0,0,0,0,0,0,0,0,0,0,0,0,0,0,0,0,0,0,0,0,0,0,0,0,0,0,0,0,0,0,0,0,0,0,0,0,0,0,0,0,0,0,0,0,0,0,0,0,0,0,0,0,0,0,0,0,0,0,0,0,0,0,0,0,0,0,0,0,0,0,0,0,0,0,0,0,0,0,0,0,0,0,0,0,0,0,0,0,0,0,0,0,0,0,0,0,0,0,0,0,0,0,0,0,0,0,0,0,0,0,0,0,0,0,0,0,0,0,0,0,0,0,0,0,0],"sum_hessian":[9.461652E4,4.9358227E4,4.5258293E4,2.6063217E4,2.3295012E4,2.7722172E4,1.7536121E4,1.667226E4,9.390957E3,1.1147211E4,1.2147801E4,1.470509E3,2.6251662E4,8.603069E3,8.933052E3,2.4372341E3,1.4235024E4,4.1693867E3,5.2215703E3,3.4062314E3,7.7409795E3,1.1407137E4,7.406646E2,1.0794597E3,3.9104932E2,5.9582183E3,2.0293443E4,6.982278E3,1.6207914E3,5.4221484E3,3.510904E3,4.7075314E2,1.966481E3,1.0220014E3,1.3213023E4,1.6343323E3,2.5350544E3,1.2038364E3,4.017734E3,7.907495E2,2.615482E3,4.6797427E2,7.2730054E3,5.691901E2,1.0837946E4,5.8450336E2,1.5616125E2,7.332933E2,3.4616644E2,2.1234424E2,1.7870508E2,2.7779658E3,3.1802524E3,1.5194646E4,5.0987974E3,2.6692607E3,4.313017E3,1.1851608E2,1.5022753E3,1.6532053E2,5.2568276E3,3.269761E3,2.4114297E2,3.7718594E1,4.3303455E2,1.444974E3,5.21507E2,6.1187585E2,4.1012555E2,2.9375378E3,1.0275485E4,1.5382667E3,9.606555E1,3.938142E2,2.1412402E3,1.1518234E3,5.201305E1,3.49009E2,3.668725E3,4.0750226E2,3.8324728E2,2.111463E3,5.040189E2,2.6762302E2,2.0035124E2,6.769407E3,5.0359833E2,4.5300113E2,1.16188995E2,4.6101282E2,1.0376934E4,5.5128925E2,3.321414E1,2.1064548E1,1.350967E2,5.0899863E2,2.2429466E2,1.1519962E2,2.3096683E2,1.725057E2,3.983853E1,1.5490106E2,2.3804007E1,